#include <math.h> 
#include <string.h> 

size_t i;

float dense_13_output_array[128]={0} ;

float dense_13_kernel_array[2560] = {
-2.09793702e-01f,-1.49058953e-01f,-1.80743188e-01f,-8.50259736e-02f,+7.42180720e-02f,
-5.00345677e-02f,+3.68019417e-02f,+1.35928020e-01f,+5.42717427e-02f,+4.29217070e-02f,
+9.70794261e-03f,+1.33461475e-01f,-4.03405800e-02f,+7.84215331e-02f,+8.88668559e-03f,
-6.36545718e-02f,-4.44601215e-02f,-1.01174727e-01f,-8.51385295e-02f,+1.61425248e-01f,
-1.36777565e-01f,+8.47216249e-02f,+1.00132540e-01f,+6.74692094e-02f,-4.48756963e-02f,
-6.30632266e-02f,-5.94279803e-02f,-8.94698352e-02f,-9.28221643e-02f,-1.12455048e-01f,
-1.75790504e-01f,+1.23994529e-01f,-7.68981455e-03f,+1.16333496e-02f,-1.54729933e-01f,
-1.58559740e-01f,-4.25467491e-02f,+1.22668549e-01f,+2.62840949e-02f,+5.93295023e-02f,
-1.95749730e-01f,+1.61298499e-01f,+7.64067397e-02f,-1.98628809e-02f,-4.22395989e-02f,
+2.09325608e-02f,-1.50932387e-01f,-1.79778546e-01f,-1.44713238e-01f,+1.41509725e-02f,
+4.06319723e-02f,+1.25282547e-02f,+1.70913875e-01f,-2.57258508e-02f,+1.26547277e-01f,
+9.59794298e-02f,-4.81533408e-02f,-1.59294516e-01f,+1.84658483e-01f,+5.46824671e-02f,
-1.53895855e-01f,+6.17184443e-04f,-8.61317217e-02f,-1.88017279e-01f,-1.13660723e-01f,
-6.85115531e-02f,-1.14738241e-01f,+1.05304733e-01f,-1.48259103e-01f,+1.66374832e-01f,
-3.98458205e-02f,-1.80319950e-01f,+6.89471047e-03f,+2.93623973e-02f,-1.23259284e-01f,
-1.67709701e-02f,-1.37005448e-01f,+6.09916113e-02f,-7.78937154e-03f,+6.73498139e-02f,
+1.13975190e-01f,+2.19195075e-02f,-1.54528156e-01f,-3.22500393e-02f,+5.54242544e-02f,
-4.86769117e-02f,-1.04513340e-01f,+1.98585168e-02f,-9.16172490e-02f,+1.55575097e-01f,
-1.15473926e-01f,+1.90720648e-01f,+5.97098656e-02f,-5.60564063e-02f,+2.88684685e-02f,
+1.41330510e-01f,+1.60165831e-01f,+3.49940248e-02f,-1.23224154e-01f,-1.03954755e-01f,
-3.47275054e-03f,-9.56995320e-03f,+1.04559720e-01f,-1.25759766e-01f,-7.76514485e-02f,
+6.37534074e-03f,-1.36920854e-01f,-1.42094091e-01f,+1.25476539e-01f,+2.58702692e-02f,
+1.22848526e-01f,+1.59573928e-01f,-9.12753120e-02f,+1.73175976e-01f,-1.20654935e-02f,
+3.13217267e-02f,+1.72836110e-02f,+1.77277908e-01f,+1.35943383e-01f,-9.44559202e-02f,
+2.13348493e-01f,-1.76474065e-01f,-1.44545764e-01f,+7.49468505e-02f,+8.05901140e-02f,
+2.35101968e-01f,+9.19826403e-02f,-8.32373649e-02f,-1.87029034e-01f,+4.93192784e-02f,
-9.28877443e-02f,+1.42321527e-01f,-1.24431793e-02f,+2.67059170e-02f,-1.38157412e-01f,
-3.42630707e-02f,+1.87914118e-01f,+9.68720391e-02f,-6.43842965e-02f,+5.92108890e-02f,
-2.70499978e-02f,+7.20000565e-02f,-1.87913492e-01f,-1.89258903e-01f,+1.30758481e-03f,
+9.70040634e-02f,-1.63770039e-02f,-4.40186895e-02f,+2.18747202e-02f,+1.58459157e-01f,
+5.04644103e-02f,-2.51322109e-02f,+1.82216391e-01f,-1.17531836e-01f,-1.53572366e-01f,
-8.07931200e-02f,+1.89206917e-02f,-2.22511142e-01f,+4.61358465e-02f,+4.05156501e-02f,
+1.14383727e-01f,-1.68788001e-01f,-9.41877216e-02f,-1.22247739e-02f,-1.84923545e-01f,
+2.62463428e-02f,+1.89483210e-01f,+7.09981024e-02f,-6.99572191e-02f,+2.27270395e-01f,
-4.73344289e-02f,+9.57650617e-02f,+1.70368299e-01f,-6.20574504e-02f,+1.95266739e-01f,
-4.40581739e-02f,+1.63043439e-01f,+2.92913499e-03f,-1.50040016e-02f,-1.74723506e-01f,
+6.99067935e-02f,+4.88305790e-03f,-1.37455225e-01f,+1.26031205e-01f,+4.75253388e-02f,
-1.42038196e-01f,-3.10777593e-02f,-5.89156151e-02f,-2.20114514e-01f,-1.84799004e-02f,
-9.16466564e-02f,-6.58068806e-02f,+8.26590359e-02f,+1.86803952e-01f,+1.73784524e-01f,
+1.28248811e-01f,+1.37979031e-01f,+1.38613582e-01f,-2.03134388e-01f,+1.61766708e-01f,
+1.31811798e-01f,+6.55773059e-02f,-2.11684346e-01f,-5.64574962e-03f,+9.46450606e-02f,
+1.06706582e-01f,-1.58763900e-01f,+7.55506158e-02f,+1.20658688e-01f,+1.25307133e-02f,
+3.19779254e-02f,-1.21992975e-01f,-1.56984152e-03f,+2.05506697e-01f,+2.23566573e-02f,
+8.72728899e-02f,+7.67116249e-02f,-3.67940329e-02f,-8.09039995e-02f,-1.63844042e-03f,
+1.62838310e-01f,+6.79750927e-03f,-1.74279451e-01f,-1.65381685e-01f,+8.25589821e-02f,
-1.70463711e-01f,+7.22750053e-02f,+3.28704789e-02f,-1.54836327e-01f,-6.26781806e-02f,
-1.60885528e-01f,-2.06050381e-01f,-1.13084815e-01f,-1.37638822e-01f,+6.03306256e-02f,
+9.80834812e-02f,-1.39628008e-01f,-2.39621520e-01f,+2.09260374e-01f,+9.82831791e-02f,
-9.21647549e-02f,-6.65475428e-02f,+2.28839312e-02f,-2.00774267e-01f,+4.82140332e-02f,
-1.49291921e-02f,+1.92988589e-01f,-4.11737002e-02f,+2.07024645e-02f,+2.11825490e-01f,
-1.69193581e-01f,-1.74190760e-01f,-6.92543536e-02f,-1.37755036e-01f,+4.63276617e-02f,
+2.47716699e-02f,+1.78694308e-01f,-1.20219804e-01f,-4.82293516e-02f,-3.28850597e-02f,
+1.92752272e-01f,-1.26660587e-02f,+1.74817964e-02f,+1.16034247e-01f,+7.55227804e-02f,
+1.94051355e-01f,+2.08555639e-01f,+1.69406369e-01f,+5.25607206e-02f,-5.52732497e-02f,
-1.60368130e-01f,-1.73322424e-01f,+2.32414249e-03f,+1.39333382e-01f,+8.85034800e-02f,
+1.73128858e-01f,+1.90222621e-01f,+7.70354867e-02f,-1.43466979e-01f,-7.05431029e-02f,
-9.56753641e-02f,-2.46281661e-02f,+9.69534665e-02f,-7.02495780e-03f,-7.33691733e-03f,
+1.29064471e-01f,+6.36829585e-02f,+4.00882624e-02f,+6.33010864e-02f,-7.44228140e-02f,
+1.22957796e-01f,-1.25774797e-02f,+1.54562503e-01f,-1.53845146e-01f,-1.68945432e-01f,
-1.71480730e-01f,+1.35498375e-01f,-1.39776349e-01f,+7.30951652e-02f,+5.97566320e-03f,
-7.08701983e-02f,-3.39169018e-02f,-1.33852974e-01f,+2.16354936e-01f,-1.41371965e-01f,
+1.11190468e-01f,-1.71144549e-02f,-1.36518911e-01f,-2.03527719e-01f,-1.67665213e-01f,
+2.97424030e-02f,+1.03552260e-01f,-1.64016858e-01f,+5.61958645e-03f,+3.89161371e-02f,
+9.95088294e-02f,+6.75457418e-02f,+8.90979096e-02f,-1.96541786e-01f,-1.84404239e-01f,
+5.37821651e-02f,+1.31640330e-01f,-1.01847649e-01f,+6.97186440e-02f,-2.12543041e-01f,
-5.30072674e-02f,-1.84578169e-02f,-1.77093372e-01f,+1.00776419e-01f,-1.65407211e-01f,
-1.38376355e-01f,+1.44321874e-01f,-8.87288526e-02f,-1.14543056e-02f,+1.87069714e-01f,
+4.48632576e-02f,+5.10269701e-02f,-7.36613385e-03f,-1.02657408e-01f,+2.03973409e-02f,
+6.79838508e-02f,+1.25212088e-01f,+5.47283217e-02f,+1.39341773e-02f,-1.97058871e-01f,
+2.50643399e-02f,-1.65931568e-01f,+1.25867799e-02f,+1.61834866e-01f,+1.13225751e-01f,
+9.61908847e-02f,+1.70682743e-01f,-1.12518176e-01f,-1.18602663e-01f,+5.76405525e-02f,
-2.00730398e-01f,+6.37930334e-02f,+1.09771863e-01f,+1.91609234e-01f,+1.87251762e-01f,
-1.48629546e-01f,-1.31107718e-01f,-7.42217107e-03f,-1.63754821e-01f,+1.11141242e-01f,
-1.10343350e-02f,-3.45328711e-02f,-1.82892472e-01f,+7.89327696e-02f,-6.38881847e-02f,
+1.98594946e-02f,-1.23127848e-01f,+2.41073500e-02f,-6.80606673e-03f,-5.19846454e-02f,
+8.88646245e-02f,+1.36507630e-01f,-1.51608810e-02f,+1.65323973e-01f,-9.96017978e-02f,
+7.85729811e-02f,-1.02047719e-01f,-1.66425690e-01f,+8.43386278e-02f,-5.87056503e-02f,
+1.23183563e-01f,+1.91567406e-01f,-1.40971392e-01f,+1.35884330e-01f,-1.39045611e-01f,
+1.35469779e-01f,+2.40785666e-02f,-1.53104886e-01f,-1.09933332e-01f,+5.32374494e-02f,
-9.56443921e-02f,+1.30192250e-01f,-1.58521414e-01f,-1.16253041e-01f,-1.46595478e-01f,
+1.75169513e-01f,+1.52358532e-01f,-1.56843081e-01f,+1.01775005e-01f,-5.08898012e-02f,
-1.78257957e-01f,-2.33652145e-02f,+1.11096255e-01f,-9.88502428e-02f,+3.67697217e-02f,
-1.21877901e-01f,-1.40655652e-01f,-9.24924910e-02f,+1.29770786e-01f,+2.07100704e-01f,
+1.82070106e-01f,-1.68222308e-01f,-1.10461749e-01f,+1.04008773e-02f,+2.15700224e-01f,
+1.42041057e-01f,-1.95424870e-01f,-1.13186762e-01f,-1.85000032e-01f,-5.20648994e-02f,
+4.19907570e-02f,-5.26046206e-05f,-1.18692018e-01f,-1.87155139e-02f,+2.06976235e-01f,
-2.07405224e-01f,-7.70141035e-02f,-4.24916334e-02f,-4.70737964e-02f,+1.42279351e-02f,
+1.59534469e-01f,-2.07071304e-02f,-1.34011269e-01f,+5.38598783e-02f,-4.76578623e-02f,
-1.69276163e-01f,+1.46660745e-01f,-7.28438795e-02f,+1.42283589e-01f,+6.87486902e-02f,
-2.44618542e-02f,+3.66792567e-02f,+6.07214421e-02f,-2.10434467e-01f,-5.53912260e-02f,
+1.10205360e-01f,+1.68941930e-01f,-1.29370242e-01f,+1.76972806e-01f,-4.12696786e-02f,
-5.75414076e-02f,+3.87170613e-02f,+3.34690954e-03f,+4.24636491e-02f,+1.18116386e-01f,
-1.36771262e-01f,+1.06568681e-02f,-3.55254160e-03f,-2.11525053e-01f,-1.71344489e-01f,
+1.81424275e-01f,-1.11424930e-01f,-1.32831275e-01f,-1.00032270e-01f,-1.75793283e-02f,
+7.98936337e-02f,+8.19465369e-02f,-1.74302921e-01f,+1.70472518e-01f,+3.25722434e-03f,
+1.43334955e-01f,-1.04149774e-01f,+1.42887056e-01f,-1.53155774e-01f,+1.58105761e-01f,
-3.36538404e-02f,+8.55969936e-02f,-6.57522678e-02f,-3.80635238e-03f,-8.86272490e-02f,
+2.78134062e-03f,+1.41424209e-01f,-8.73506591e-02f,-4.69523109e-02f,-9.62394401e-02f,
-1.56495810e-01f,+3.17253023e-02f,+1.98386097e-03f,+1.88929364e-01f,-1.49227560e-01f,
+1.21555999e-01f,+1.19744822e-01f,+3.94390598e-02f,+4.23123427e-02f,+1.54529199e-01f,
+2.72097997e-02f,+1.53531343e-01f,+1.78461611e-01f,+1.94790378e-01f,+1.52448669e-01f,
+3.36269960e-02f,+2.56014913e-02f,+1.21963859e-01f,-1.42818674e-01f,-5.19391112e-02f,
+2.22466211e-03f,-1.52495652e-01f,-1.54312640e-01f,+1.55786164e-02f,+2.32186094e-01f,
+1.22005351e-01f,+8.73847380e-02f,+3.48375104e-02f,-1.15229003e-01f,+9.67911780e-02f,
+1.95777752e-02f,+1.72018215e-01f,-2.01500386e-01f,+1.18021354e-01f,-1.36358470e-01f,
+7.53097460e-02f,+4.09225002e-02f,-1.26818314e-01f,-2.14731414e-02f,-1.01689622e-01f,
+3.78613137e-02f,-1.46014094e-01f,-1.98216945e-01f,+1.24418072e-01f,+7.88279697e-02f,
-8.99000093e-02f,-9.28085111e-03f,-1.17286392e-01f,-5.24786711e-02f,+1.03441946e-01f,
-1.96249187e-01f,-1.56965271e-01f,+3.66739370e-02f,+1.70083374e-01f,+1.90154210e-01f,
-3.70079875e-02f,-9.02424306e-02f,-1.38279032e-02f,-1.65642202e-01f,-5.33526056e-02f,
+7.26185217e-02f,-1.22506350e-01f,+9.89665985e-02f,-1.52917206e-01f,-2.28660200e-02f,
+4.72165979e-02f,+1.07186317e-01f,-3.10769454e-02f,-8.53475370e-03f,-6.12539425e-02f,
+1.12697281e-01f,+1.74160779e-01f,-1.40366018e-01f,-8.23332816e-02f,-1.06591182e-02f,
-6.55029193e-02f,+1.66251317e-01f,+1.11181125e-01f,-1.89907074e-01f,+6.95365369e-02f,
+2.63188332e-02f,+1.52200311e-01f,+2.13720053e-01f,-2.86978260e-02f,+1.71108797e-01f,
-1.11357346e-01f,+6.58586174e-02f,+5.22552580e-02f,-4.65255715e-02f,-9.65954661e-02f,
+1.30082071e-01f,+4.25450131e-02f,-9.18574538e-03f,-6.34758994e-02f,+1.37337461e-01f,
+6.50357381e-02f,-1.43425122e-01f,-1.22967079e-01f,+3.97541225e-02f,-1.83914253e-03f,
+1.52458057e-01f,-1.12205014e-01f,+3.00381370e-02f,+9.97992307e-02f,-1.94113657e-01f,
+1.31805718e-01f,-2.56148390e-02f,+1.06357830e-02f,-9.08625498e-02f,+2.87919659e-02f,
+9.90426913e-02f,+1.22061342e-01f,+1.66336864e-01f,+1.39175821e-02f,-6.59257695e-02f,
+1.45339146e-01f,+1.36974394e-01f,+1.56479582e-01f,+1.39105871e-01f,+1.56286642e-01f,
+3.70822474e-02f,+1.60353273e-01f,+1.97542846e-01f,+1.45710900e-01f,-1.85183302e-01f,
-2.05945596e-01f,+2.11193919e-01f,-1.27840206e-01f,-3.32396105e-02f,+6.01856261e-02f,
-5.35985343e-02f,-2.35411562e-02f,+1.22007743e-01f,+5.09197935e-02f,-1.49032936e-01f,
+7.87579641e-02f,+1.00142255e-01f,-1.07251309e-01f,+3.24193686e-02f,+1.66407257e-01f,
-5.95613532e-02f,-8.99364501e-02f,-1.02734089e-01f,-1.46989480e-01f,+1.99568607e-02f,
-1.20445132e-01f,+1.80034608e-01f,-2.61383727e-02f,-1.65511355e-01f,-3.27335075e-02f,
+5.14073074e-02f,-2.11514011e-01f,+1.84110209e-01f,-2.09179483e-02f,+7.34168962e-02f,
+2.07006142e-01f,+8.57689455e-02f,+1.31475285e-01f,+4.37597297e-02f,+2.21068293e-01f,
+9.73758772e-02f,-9.08511505e-02f,+5.83277903e-02f,+2.46611267e-01f,+3.67932022e-02f,
-4.73041236e-02f,-1.16315961e-01f,-2.03406900e-01f,-2.02637076e-01f,+4.48532216e-02f,
-2.24264115e-01f,-2.09343079e-02f,+1.17403165e-01f,+4.48170723e-03f,-2.17800319e-01f,
-5.16293719e-02f,-9.48344693e-02f,+1.60381779e-01f,-1.73501015e-01f,+6.10621236e-02f,
-3.39909606e-02f,-1.04832038e-01f,-1.85256839e-01f,+1.14859678e-02f,-1.95309520e-01f,
+1.71317086e-01f,-5.97264357e-02f,-8.13960359e-02f,+4.91393246e-02f,+7.21850321e-02f,
+1.30981103e-01f,-4.42805067e-02f,-1.17613167e-01f,+1.34390697e-01f,-1.48081273e-01f,
-2.55239457e-01f,-1.04672559e-01f,-1.71594337e-01f,+2.32198879e-01f,-2.69749403e-01f,
-1.81223989e-01f,+1.18296735e-01f,-6.63399789e-03f,+1.30373746e-01f,-1.23059340e-01f,
+2.05314532e-02f,+8.00332204e-02f,-2.07018644e-01f,+1.00815125e-01f,-9.98340920e-03f,
+2.40090460e-01f,-2.28773579e-02f,-2.12153554e-01f,+8.10435042e-02f,+1.85723856e-01f,
-1.34367570e-01f,-1.31926060e-01f,-1.65363327e-01f,-1.17703579e-01f,-1.25467420e-01f,
-1.96470678e-01f,-7.05429390e-02f,+1.26080781e-01f,-1.00272879e-01f,+2.02042744e-01f,
-6.51777759e-02f,-1.70586720e-01f,+1.60184622e-01f,-3.22577991e-02f,+1.31260594e-02f,
+1.10626526e-01f,-1.44942924e-01f,-1.13817573e-01f,+1.20182425e-01f,-2.32911304e-01f,
-1.61293909e-01f,+8.10468048e-02f,+1.29281536e-01f,-1.33454949e-01f,-3.22385766e-02f,
-2.58343846e-01f,+9.07967538e-02f,-4.63620573e-02f,-7.70278201e-02f,+2.34136879e-01f,
+2.46862501e-01f,+2.43987739e-02f,+5.60345091e-02f,+1.17605492e-01f,-7.65100121e-02f,
+1.52326569e-01f,-1.81502059e-01f,-1.94577396e-01f,+1.91695005e-01f,-4.95255142e-02f,
+2.05164641e-01f,-1.08434431e-01f,+2.32286379e-01f,+1.45139962e-01f,+2.14442044e-01f,
-8.06768015e-02f,+6.27349243e-02f,-2.71516621e-01f,-2.57186860e-01f,+1.76786501e-02f,
+1.56496465e-01f,-1.57105774e-01f,+9.52777639e-02f,-1.91775560e-01f,+1.38814317e-03f,
+1.03823066e-01f,-1.96759716e-01f,+5.28065562e-02f,+2.12314427e-01f,+6.32030368e-02f,
-8.19101408e-02f,-2.56089848e-02f,+2.31296554e-01f,-1.61905568e-02f,+3.46256644e-02f,
-2.07773242e-02f,+1.74832731e-01f,-1.66522041e-01f,+6.44228533e-02f,+1.19939193e-01f,
-8.40217322e-02f,+1.52353659e-01f,-9.24206898e-02f,+1.40085043e-02f,+5.49333952e-02f,
-1.82039499e-01f,-3.84486429e-02f,+2.42116228e-02f,-1.51230842e-01f,-1.50770232e-01f,
-9.14182439e-02f,-1.27455577e-01f,-1.70923471e-01f,+7.68090859e-02f,-1.37570202e-01f,
-1.26017585e-01f,-5.68082370e-02f,-4.27181050e-02f,-4.24470715e-02f,+1.15667537e-01f,
+9.15336190e-04f,+1.99011981e-01f,+6.60237819e-02f,+7.03800246e-02f,+2.94669028e-02f,
-1.32367432e-01f,-6.06487645e-03f,+8.70803595e-02f,+1.02211177e-01f,-1.75211653e-01f,
-3.04691400e-02f,-1.76215976e-01f,-6.05201162e-02f,-1.66294761e-02f,+1.67748898e-01f,
-9.26295593e-02f,-1.33297518e-01f,+1.77403782e-02f,+2.42093727e-02f,+1.55833289e-01f,
-2.15670660e-01f,+1.94196686e-01f,-1.00030601e-01f,-6.94844946e-02f,-1.60779282e-01f,
+3.32519338e-02f,-1.45788968e-01f,-8.64236504e-02f,+1.47198737e-01f,+9.10823718e-02f,
+2.54317448e-02f,+1.20742358e-02f,-1.09747596e-01f,+2.60295477e-02f,-1.29314631e-01f,
+2.90826410e-02f,-1.21594705e-01f,+2.24784892e-02f,+1.80607274e-01f,+1.55242980e-01f,
+5.50444648e-02f,+1.54475540e-01f,-1.92307904e-02f,+7.17410296e-02f,+1.78966895e-01f,
+1.17616430e-01f,-3.60625684e-02f,+1.06624387e-01f,-1.50043428e-01f,-1.53764710e-01f,
+5.68046682e-02f,-9.75960344e-02f,+4.23225388e-02f,-1.59047082e-01f,+1.51328474e-01f,
-1.95434004e-01f,-3.98230366e-02f,+1.13242500e-01f,+1.28607094e-01f,+7.55224237e-03f,
-2.02054773e-02f,-1.80693865e-01f,-1.47668183e-01f,+1.38048694e-01f,+1.24888374e-02f,
-1.66151136e-01f,+2.32622191e-01f,-8.99313539e-02f,-1.89948857e-01f,+9.70804915e-02f,
-1.31726384e-01f,+1.08727589e-02f,+1.11301832e-01f,+8.73569846e-02f,-3.56736928e-02f,
-1.88151464e-01f,-6.01177737e-02f,+1.48129895e-01f,-3.87938283e-02f,-4.70209531e-02f,
-9.72017944e-02f,-1.40265748e-01f,+1.54566377e-01f,-5.09431213e-02f,-5.97882420e-02f,
-1.30374372e-01f,-9.61196348e-02f,-7.38479272e-02f,-4.32291403e-02f,+2.28114367e-01f,
+1.65755406e-03f,+2.58888230e-02f,-3.99821773e-02f,+1.45923927e-01f,-4.18941937e-02f,
+1.33108079e-01f,+2.00527370e-01f,+1.77027658e-01f,-6.63293824e-02f,-1.05266415e-01f,
+9.91751906e-03f,-8.95271227e-02f,+1.20412685e-01f,-8.30271244e-02f,-1.82635322e-01f,
+1.02039248e-01f,-1.34474039e-01f,+1.85456976e-01f,-1.67769387e-01f,+4.04331647e-02f,
-1.81496620e-01f,-1.09522857e-01f,-9.49889515e-03f,+6.06350368e-03f,+1.14450321e-01f,
+4.20526601e-02f,-9.64982435e-03f,+1.75227359e-01f,-2.14040130e-01f,-8.97885412e-02f,
-7.51079619e-02f,+1.74552962e-01f,+5.16198315e-02f,-1.82120781e-02f,+1.63763971e-03f,
+7.38646463e-02f,-4.43918630e-02f,-9.79219750e-02f,-6.65432215e-02f,+1.80827901e-01f,
+1.86843500e-01f,-3.37005891e-02f,+9.09550041e-02f,-1.15293175e-01f,-1.60501197e-01f,
+9.18669775e-02f,+1.80746660e-01f,+1.53418869e-01f,-1.98600560e-01f,-1.16257429e-01f,
+1.48591325e-01f,+5.93589656e-02f,+1.54777974e-01f,-1.42636657e-01f,-2.34252904e-02f,
+1.04120858e-01f,+2.15047210e-01f,+1.62029471e-02f,+4.97103855e-02f,+1.43795028e-01f,
+3.98102514e-02f,-1.91602319e-01f,-2.98431925e-02f,+8.62133875e-02f,-1.27918899e-01f,
+1.07802674e-02f,+1.19589604e-01f,+1.72122288e-03f,-1.74420223e-01f,+7.44338036e-02f,
-8.23271424e-02f,-7.68543258e-02f,+1.12847678e-01f,+1.46791980e-01f,-1.72647044e-01f,
+6.51734993e-02f,+1.50884271e-01f,+1.54874325e-01f,+1.88423663e-01f,+1.15325630e-01f,
-4.02383842e-02f,+5.98463900e-02f,-1.17035713e-02f,+1.09578565e-01f,-1.05525136e-01f,
-2.61090156e-02f,+2.47668438e-02f,+8.78122821e-02f,-1.03238545e-01f,-5.30557446e-02f,
+6.56262487e-02f,-1.37506112e-01f,-1.03103295e-01f,+1.26811504e-01f,-1.19136207e-01f,
-2.66059618e-02f,+3.53202149e-02f,-1.30305961e-01f,-1.38623908e-01f,+1.08834051e-01f,
+8.31355900e-03f,-5.33824367e-03f,+9.11632776e-02f,+1.68767795e-01f,+4.82589751e-03f,
+1.61123618e-01f,-7.17663541e-02f,+1.19911119e-01f,-8.92976820e-02f,-4.35566381e-02f,
+8.13062564e-02f,-2.04635531e-01f,-1.62860841e-01f,+1.92771316e-01f,+1.33391976e-01f,
+7.48559320e-03f,+2.18199849e-01f,-6.68674381e-03f,-3.08317989e-02f,+1.66057825e-01f,
-1.74218059e-01f,+1.16211019e-01f,-8.42303187e-02f,+2.93503068e-02f,-1.01289980e-01f,
-1.28436550e-01f,+2.04401895e-01f,-9.67691466e-02f,-2.24291652e-01f,-1.16690565e-02f,
-6.32616207e-02f,+1.97874844e-01f,+7.76456147e-02f,-1.43013485e-02f,+1.54216290e-01f,
-1.90752044e-01f,-1.13823257e-01f,-1.60282314e-01f,+5.51582389e-02f,-1.66780382e-01f,
-1.25085205e-01f,-1.85698688e-01f,+1.54757425e-02f,+1.01646416e-01f,+7.90047497e-02f,
+1.51387677e-01f,+9.54464823e-02f,-1.69093207e-01f,-2.44583562e-02f,+8.69289041e-02f,
+5.85488230e-02f,+1.18368961e-01f,-1.55626431e-01f,+1.07815690e-01f,-1.50403246e-01f,
-1.60522565e-01f,-7.11502954e-02f,+1.30277157e-01f,-8.67523849e-02f,+1.08254321e-01f,
-1.96972974e-02f,+6.52318969e-02f,-1.63344014e-02f,-5.97221367e-02f,-1.43626362e-01f,
+5.09562604e-02f,-3.39866467e-02f,-7.55532905e-02f,+3.16486061e-02f,+9.27302688e-02f,
-1.01807505e-01f,+1.82690442e-01f,-3.44054475e-02f,+7.77483359e-02f,+4.86527337e-03f,
-1.78695336e-01f,+2.16210224e-02f,-9.58510563e-02f,+1.90247819e-01f,-1.50529504e-01f,
-2.60748435e-02f,-5.40941879e-02f,+1.56455666e-01f,+1.86409339e-01f,-1.66687176e-01f,
-4.97506522e-02f,-1.09398924e-01f,+1.50915727e-01f,+1.68575287e-01f,-1.39198333e-01f,
+1.26067968e-03f,+2.49129292e-02f,-5.91639578e-02f,-6.38767779e-02f,-5.27062733e-03f,
-1.43488154e-01f,-9.62876976e-02f,-2.37718709e-02f,+6.65675849e-02f,-2.68408973e-02f,
-1.11296386e-01f,-1.98605388e-01f,+1.06832489e-01f,-2.08222508e-01f,-1.55089917e-02f,
-1.10025138e-01f,+1.50429845e-01f,+6.14609905e-02f,+1.12150989e-01f,-1.58816725e-01f,
+1.65901095e-01f,-1.59638360e-01f,+1.43022686e-02f,+1.19135767e-01f,-1.55449033e-01f,
-1.42539009e-01f,+6.02375567e-02f,-8.19564238e-03f,+2.15226665e-01f,+1.02865040e-01f,
+7.10954366e-04f,+1.60775512e-01f,-1.68056011e-01f,-5.48820272e-02f,+8.31939504e-02f,
-7.04632252e-02f,+7.24706799e-02f,-2.35345308e-02f,+2.83482466e-02f,-1.93920359e-01f,
-9.87652540e-02f,+8.93568248e-03f,+5.56355715e-02f,-1.20197706e-01f,-1.88422650e-01f,
-6.41231835e-02f,+2.74370443e-02f,-6.24674149e-02f,-2.26743683e-01f,-2.64123045e-02f,
-4.71532233e-02f,-1.01691388e-01f,+1.37739033e-01f,+1.44483939e-01f,+1.37625888e-01f,
-4.30893414e-02f,-1.27811342e-01f,-2.01723590e-01f,+1.82067946e-01f,+2.33595967e-02f,
-3.76241133e-02f,-5.24303019e-02f,+1.74435467e-01f,-2.23218910e-02f,-9.80968177e-02f,
+1.04473159e-01f,+1.79310337e-01f,+5.56766503e-02f,+1.97712719e-01f,-1.56903207e-01f,
+9.89748612e-02f,+5.03983274e-02f,-1.41577169e-01f,-1.23999953e-01f,-1.59291010e-02f,
-2.66059730e-02f,-1.13798745e-01f,+2.11244226e-01f,+5.84398173e-02f,-1.87115699e-01f,
+3.11063323e-02f,+1.52935192e-01f,-1.08946286e-01f,+1.81309730e-01f,+1.03851534e-01f,
-1.59890279e-02f,+1.65239915e-01f,-1.06094450e-01f,+1.68561250e-01f,+1.86181322e-01f,
+9.41656716e-03f,-8.27697292e-02f,-2.89835259e-02f,+8.94250646e-02f,+7.78188184e-02f,
+7.40685239e-02f,+2.21834838e-01f,-1.24409705e-01f,+2.19306037e-01f,+5.69105521e-02f,
+1.98088549e-02f,-6.62201941e-02f,+1.88304842e-01f,-1.79431736e-01f,+4.62868251e-02f,
-4.85632159e-02f,-1.72945783e-02f,+1.63622722e-01f,+2.69381749e-03f,-1.97955444e-01f,
+6.92645162e-02f,-6.35677278e-02f,-1.11209966e-01f,-1.40132517e-01f,+1.94205567e-01f,
-5.56999631e-02f,-7.64726400e-02f,-8.13393295e-02f,+1.00450508e-01f,-1.75089777e-01f,
+1.15921631e-01f,+1.12319224e-01f,+7.63952062e-02f,+9.02713612e-02f,+2.75491830e-03f,
-6.20693788e-02f,-1.02355830e-01f,-1.07716590e-01f,-7.20454603e-02f,+6.82168081e-02f,
-7.86824524e-02f,+1.34920672e-01f,-1.47388563e-01f,+1.41060159e-01f,-5.00593856e-02f,
+1.00709081e-01f,+9.11390483e-02f,+1.18014000e-01f,-1.10645145e-01f,-2.32296333e-01f,
-1.17631540e-01f,-8.07323456e-02f,+2.16131046e-01f,+1.78886235e-01f,+9.43964049e-02f,
+2.24375781e-02f,-1.29006103e-01f,+7.19880918e-03f,-4.91422974e-02f,+3.25232148e-02f,
-1.30674466e-01f,-1.24146929e-02f,+1.78368941e-01f,-1.42093271e-01f,-1.70087256e-02f,
+7.01980218e-02f,+8.95024464e-02f,+1.68258309e-01f,-1.85509652e-01f,-4.67474312e-02f,
-7.84027278e-02f,-1.03525303e-01f,-1.76144078e-01f,+4.88023227e-03f,+1.25142206e-02f,
-6.45655990e-02f,-1.00054480e-01f,+1.49289086e-01f,-1.57215685e-01f,-4.64513302e-02f,
-4.34290133e-02f,+1.75113276e-01f,+1.67093202e-01f,+1.35747746e-01f,-6.86272159e-02f,
-1.59599304e-01f,-1.38973147e-01f,-1.77803282e-02f,+1.67087719e-01f,+8.79835039e-02f,
+4.85604703e-02f,-1.38575286e-01f,+8.22286382e-02f,-1.87689096e-01f,+1.80710196e-01f,
-1.54241892e-02f,+1.66160576e-02f,+9.41521525e-02f,+9.15539190e-02f,-9.79080200e-02f,
+5.51551431e-02f,+1.78322390e-01f,+2.17655357e-02f,-1.27000868e-01f,+1.57686442e-01f,
-7.31775723e-03f,-1.06125079e-01f,-1.28105208e-01f,+2.65510697e-02f,-8.48536752e-03f,
-3.79898697e-02f,+9.73046347e-02f,-1.39953077e-01f,+3.74029018e-02f,-9.64147821e-02f,
+9.63560212e-03f,+2.10240129e-02f,-6.53383657e-02f,-6.82716519e-02f,-6.98397011e-02f,
+1.13148600e-01f,+6.41383752e-02f,+3.21034044e-02f,+1.12562135e-01f,+2.27799594e-01f,
-1.80955544e-01f,+5.92728741e-02f,+1.34716466e-01f,-1.97169304e-01f,+8.94310400e-02f,
-1.25085056e-01f,-6.94193179e-03f,+1.91946760e-01f,+1.11776337e-01f,+1.02516666e-01f,
-4.28010188e-02f,+4.90680784e-02f,+6.19697534e-02f,+3.58569324e-02f,-1.44750044e-01f,
+8.90577063e-02f,-4.31727208e-02f,+7.75670335e-02f,-1.10248461e-01f,+3.27834561e-02f,
-5.96202873e-02f,+7.54627585e-02f,-1.21305898e-01f,-1.25351533e-01f,-4.96438406e-02f,
+1.25117213e-01f,+1.43764531e-02f,+1.92080736e-01f,-4.08752859e-02f,-7.23342523e-02f,
-1.71103477e-01f,+4.74154279e-02f,-8.22649244e-03f,+2.05089480e-01f,-5.49879596e-02f,
+4.46742028e-02f,-1.27558127e-01f,+1.86575741e-01f,-2.04666615e-01f,-3.84760983e-02f,
-7.35869780e-02f,+6.23523816e-02f,+4.78876121e-02f,+9.86906067e-02f,+1.08620584e-01f,
+1.39891982e-01f,-1.71506079e-03f,-3.31428759e-02f,+1.26113370e-01f,+1.12446867e-01f,
-1.67787954e-01f,-9.70223248e-02f,+3.82722728e-02f,-5.34155667e-02f,+4.99408022e-02f,
-6.60915747e-02f,+1.41959578e-01f,-1.66804790e-01f,-1.33137435e-01f,-8.00149739e-02f,
+7.55475163e-02f,+3.18473950e-02f,-7.68335536e-02f,-9.02049169e-02f,+1.04335338e-01f,
+1.82788283e-01f,+3.05705378e-03f,-1.13746338e-01f,-1.93587765e-02f,-1.82841554e-01f,
+1.27401110e-02f,+1.60119534e-02f,-1.33814633e-01f,+2.14536730e-02f,-1.55073270e-01f,
-4.99006920e-02f,-4.86817956e-03f,+1.72068745e-01f,-1.52435258e-01f,-1.33331448e-01f,
+1.68407679e-01f,-1.41163543e-01f,+9.12181363e-02f,+1.74485832e-01f,+2.02462196e-01f,
-1.17985509e-01f,+8.20535421e-02f,-1.78951055e-01f,+1.42783329e-01f,+4.97207306e-02f,
-1.03314482e-01f,+8.17109868e-02f,+1.47148907e-01f,+8.67071003e-02f,-7.88480565e-02f,
+7.43264258e-02f,+1.38276502e-01f,-2.92441808e-02f,+9.04965475e-02f,-1.44162431e-01f,
+2.19946206e-02f,+6.94383606e-02f,-7.56641626e-02f,-1.82786390e-01f,+1.91747561e-01f,
-3.23820002e-02f,-6.50800914e-02f,+9.93973687e-02f,+9.93884578e-02f,-1.27095282e-01f,
-6.42601475e-02f,-1.40179455e-01f,+7.66334087e-02f,+2.09163025e-01f,-6.65347576e-02f,
+1.49797708e-01f,-1.56266406e-01f,+3.27749439e-02f,+6.18739761e-02f,+3.66600491e-02f,
-3.71800922e-02f,+1.01108951e-02f,+5.65146853e-04f,+2.20553294e-01f,+2.11764917e-01f,
-1.13923326e-01f,+1.23386800e-01f,+8.53499472e-02f,-1.10368626e-02f,-2.12923530e-02f,
-1.76515192e-01f,+5.60555980e-02f,-1.90292478e-01f,+1.24391675e-01f,-8.74033496e-02f,
-1.82945296e-01f,-2.07186013e-01f,+4.76710238e-02f,+6.62092716e-02f,+1.65298898e-02f,
-1.31615013e-01f,+3.81438024e-02f,+1.72714785e-01f,+1.95045829e-01f,-1.63046226e-01f,
+6.04430400e-03f,+1.69264957e-01f,+2.00844690e-01f,+1.74442977e-01f,-5.96799105e-02f,
+9.47105214e-02f,+2.32949257e-01f,+1.88694578e-02f,+1.54023424e-01f,-1.16193756e-01f,
-1.32156014e-01f,+9.53768939e-02f,-1.87998824e-02f,+1.73941419e-01f,-9.30325091e-02f,
+9.01885182e-02f,+5.10923974e-02f,-4.41459194e-02f,-1.28936231e-01f,-4.79823872e-02f,
-5.26270941e-02f,-1.10914996e-02f,-1.60548732e-01f,+4.35357802e-02f,-8.60822126e-02f,
-4.32485156e-03f,+1.99910954e-01f,+4.71325777e-02f,-2.86746118e-02f,+7.46239536e-03f,
-1.98324859e-01f,+2.18950212e-01f,+4.39349860e-02f,-1.75980218e-02f,-1.11415191e-02f,
+2.38067079e-02f,-6.77113421e-03f,+6.51173852e-03f,-1.36325993e-02f,-9.47132409e-02f,
+7.36313239e-02f,-1.47376731e-01f,-1.12006776e-01f,-5.79524152e-02f,-1.15102626e-01f,
-8.09404626e-02f,+1.44932657e-01f,-1.68792918e-01f,+1.05666399e-01f,-1.56958982e-01f,
+2.59816647e-02f,-1.17027396e-02f,-1.28851131e-01f,-1.29855216e-01f,+4.17329073e-02f,
-1.79590344e-01f,-8.53535999e-03f,-3.23991328e-02f,-1.10546142e-01f,-6.26437739e-02f,
-1.63523570e-01f,-1.74353182e-01f,-2.03309789e-01f,+1.25386909e-01f,+1.12525575e-01f,
+1.17985681e-01f,+7.39430934e-02f,+1.12336650e-01f,-3.18665840e-02f,+1.66988730e-01f,
+1.36460410e-02f,+1.28141686e-01f,-1.27960801e-01f,-1.31975859e-01f,-4.64725047e-02f,
-1.44092381e-01f,+8.83221850e-02f,-4.55018319e-02f,+1.22010410e-01f,+5.92345111e-02f,
-4.09848951e-02f,+1.25490785e-01f,+3.49812917e-02f,+9.31496769e-02f,+6.21374585e-02f,
+9.97748598e-02f,+1.66587532e-01f,-1.63050130e-01f,+1.92221195e-01f,+1.33705094e-01f,
+2.17777967e-01f,-1.04702868e-01f,+6.47421032e-02f,-1.46280989e-01f,+4.39545959e-02f,
+7.77742416e-02f,+1.80956855e-01f,-1.68509021e-01f,+2.00952023e-01f,+1.25482246e-01f,
-1.52130634e-01f,-1.44103765e-01f,-1.02171831e-01f,-8.46681669e-02f,+6.07329048e-03f,
-4.49718721e-02f,-1.12506583e-01f,+1.08584091e-01f,+1.26769215e-01f,+1.37776360e-01f,
+1.42624736e-01f,+1.49679810e-01f,+3.28828916e-02f,-1.98733747e-01f,-1.24368131e-01f,
+8.08305442e-02f,-6.51183501e-02f,+9.50871482e-02f,-7.29493201e-02f,+1.61021248e-01f,
+7.50309676e-02f,+1.23696163e-01f,-6.84899017e-02f,-9.14115086e-02f,-1.11144923e-01f,
+1.66598096e-01f,-1.86704611e-03f,+1.38072997e-01f,-7.73063600e-02f,+1.48684839e-02f,
-4.67161499e-02f,-4.14405875e-02f,-8.69425312e-02f,+1.04223177e-01f,-1.75623208e-01f,
-1.36505455e-01f,+1.85539067e-01f,+1.05708294e-01f,-1.91804215e-01f,-1.22174680e-01f,
-1.80557206e-01f,-1.01253532e-01f,-1.99419037e-01f,+1.15091607e-01f,-1.32801682e-01f,
+1.70670450e-02f,+5.15275300e-02f,-1.31200282e-02f,-1.23339118e-02f,+9.59729403e-02f,
+5.60180359e-02f,+6.81758858e-03f,+2.00404957e-01f,-1.55660257e-01f,-4.71269600e-02f,
-1.80223837e-01f,-4.30032425e-03f,+8.70560929e-02f,+2.05969721e-01f,+5.99509887e-02f,
+3.46853002e-03f,-1.84756711e-01f,+9.06426087e-02f,+2.18828619e-02f,+1.18832551e-01f,
-1.48463935e-01f,-1.02924317e-01f,-9.59891826e-02f,+1.65634543e-01f,-7.58921206e-02f,
-7.25156665e-02f,-1.14840828e-01f,-2.16429029e-03f,+2.39819009e-02f,+3.94163504e-02f,
-7.50623271e-02f,-1.45433336e-01f,-7.82490075e-02f,-3.51156481e-02f,-5.90695478e-02f,
+4.16321633e-03f,-2.69203559e-02f,-1.26533493e-01f,+2.73199379e-02f,+1.29365223e-02f,
-9.55211744e-02f,-1.74687505e-01f,+8.74047261e-03f,+1.78040639e-01f,-1.64792329e-01f,
-1.02976263e-01f,-7.04896823e-02f,-1.67438895e-01f,+1.62817255e-01f,-3.80319059e-02f,
+3.15521024e-02f,-1.78161547e-01f,-1.71581447e-01f,+1.52290940e-01f,+1.16355740e-01f,
+5.99606261e-02f,-1.98741361e-01f,-5.48116351e-03f,+9.47206691e-02f,+1.36450350e-01f,
-7.64305443e-02f,+4.15781736e-02f,-5.04630357e-02f,-1.20865375e-01f,+2.02736035e-01f,
-1.05562635e-01f,+1.83020905e-02f,-5.55554517e-02f,-9.07348618e-02f,+9.67166275e-02f,
+1.80783153e-01f,-1.50008768e-01f,+9.45813581e-02f,-1.86801538e-01f,-1.11989304e-01f,
-1.71294689e-01f,-5.80816716e-02f,+1.20897509e-01f,+4.36317436e-02f,-1.17143989e-02f,
+3.35353636e-03f,-9.25801545e-02f,-5.09730168e-02f,-1.66730940e-01f,-1.51436910e-01f,
-1.85600653e-01f,-1.47215128e-02f,-1.66330561e-01f,-1.59813434e-01f,-1.03942007e-01f,
+8.76004249e-02f,+1.69998959e-01f,+1.08097114e-01f,-1.62259161e-01f,+7.76669085e-02f,
+5.08883223e-02f,+2.77317092e-02f,-3.55303809e-02f,+4.20207046e-02f,-1.55898347e-01f,
+1.50653407e-01f,+8.62699524e-02f,+1.97918922e-01f,+1.68039680e-01f,-1.02608532e-01f,
-1.63856044e-01f,-5.79879172e-02f,+2.14101881e-01f,-1.10768773e-01f,-4.70903292e-02f,
-1.36059567e-01f,+7.78244585e-02f,+8.18665549e-02f,-1.27138510e-01f,-1.46481350e-01f,
-6.32243976e-03f,-1.26390561e-01f,-1.39242217e-01f,-3.64111364e-02f,+6.38861060e-02f,
+1.44052669e-01f,+1.66776299e-01f,-1.74800023e-01f,-1.29325688e-01f,-7.17976540e-02f,
-2.07091883e-01f,-1.43220246e-01f,-3.74588221e-02f,+1.36754990e-01f,-1.74923595e-02f,
-8.10147524e-02f,-1.79388091e-01f,+1.39325976e-01f,-6.34474978e-02f,-4.76405323e-02f,
-1.57978460e-01f,-9.37678106e-03f,-2.16732137e-02f,+3.10553499e-02f,+7.34288990e-02f,
-1.84959933e-01f,-3.03329267e-02f,+1.51468977e-01f,+1.04115941e-01f,+3.91997248e-02f,
-1.57899335e-01f,+1.15292266e-01f,-6.33802190e-02f,-4.34213616e-02f,+1.16627673e-02f,
+2.20322609e-02f,+9.16989967e-02f,+1.33171175e-02f,+1.72548294e-01f,-8.72138515e-03f,
+4.93070856e-02f,-1.43072218e-01f,-1.24097385e-01f,-1.29695237e-01f,+7.48314857e-02f,
-5.16906083e-02f,+4.47522365e-02f,-4.76834290e-02f,+7.58164972e-02f,+1.86174169e-01f,
+1.19601503e-01f,-1.42380059e-01f,-1.96842939e-01f,+3.26950811e-02f,-1.28651574e-01f,
+1.25772476e-01f,-1.58065446e-02f,-3.94233465e-02f,+2.88431440e-02f,-1.75386310e-01f,
-1.34239793e-01f,+1.56997740e-01f,-6.50406703e-02f,+1.27821583e-02f,+1.01855606e-01f,
+1.69221878e-01f,-2.05602567e-03f,-1.28588349e-01f,+1.29828498e-01f,-1.66346639e-01f,
-1.53913841e-01f,-2.05657613e-02f,-2.89803022e-03f,+7.98376054e-02f,-5.22092730e-02f,
+2.08204120e-01f,-6.71315864e-02f,+3.44657376e-02f,-2.31598634e-02f,-1.01926222e-01f,
-2.42146589e-02f,+2.14168616e-02f,+2.50224434e-02f,+1.54374704e-01f,+4.76258844e-02f,
-9.70404819e-02f,+1.21043315e-02f,+1.54364124e-01f,-1.71271011e-01f,+3.30234729e-02f,
-2.12155059e-01f,-2.91742366e-02f,+9.44017693e-02f,-1.48969606e-01f,-9.72166583e-02f,
+2.36470513e-02f,+8.49091411e-02f,-1.41548201e-01f,-6.09233007e-02f,-1.67436630e-01f,
+1.19931057e-01f,+9.62068439e-02f,-4.87137074e-03f,-1.66848451e-01f,+1.80663392e-01f,
-5.78428991e-02f,-1.94885403e-01f,+9.86588225e-02f,-3.39597277e-02f,-1.31789222e-01f,
+2.52152383e-02f,+1.08023055e-01f,+1.58049092e-01f,+1.11258812e-01f,+1.18706211e-01f,
+1.21593751e-01f,+9.85348746e-02f,-7.34000131e-02f,-1.12659782e-01f,+9.42039490e-02f,
+1.16231240e-01f,-1.03425257e-01f,-1.42466784e-01f,-5.03208190e-02f,-1.76464260e-01f,
+1.41928628e-01f,-1.96709260e-01f,+2.30851293e-01f,+1.75581515e-01f,-1.11203380e-01f,
-1.10495739e-01f,+3.66380531e-03f,-1.85766611e-02f,-1.24075875e-01f,-1.73080936e-01f,
-1.32079169e-01f,-6.64702654e-02f,-7.78764784e-02f,-6.43689781e-02f,+9.91594791e-02f,
+2.02929243e-01f,-1.71158999e-01f,+2.16149479e-01f,+8.53652135e-02f,+2.72761341e-02f,
-2.11540312e-01f,+2.03938916e-01f,+2.10294366e-01f,-2.96950527e-02f,-1.23201728e-01f,
-2.01068237e-01f,-1.94122985e-01f,-1.72467846e-02f,-4.41997200e-02f,-1.12436883e-01f,
+4.10857238e-02f,+3.93155776e-03f,+1.59193024e-01f,+8.74877051e-02f,+7.53253475e-02f,
+1.18909590e-01f,-4.34397161e-02f,+1.74691826e-01f,+1.22297406e-01f,+1.89906638e-02f,
-2.00848039e-02f,+2.14756519e-01f,-6.44495115e-02f,+2.09136233e-01f,+2.05749616e-01f,
+1.92144945e-01f,+8.44403207e-02f,+1.54276446e-01f,-4.97433404e-03f,+1.74890324e-01f,
+1.23087592e-01f,-4.81446050e-02f,-6.26962557e-02f,+1.59940541e-01f,+1.98070437e-01f,
-1.23717330e-01f,+5.72522506e-02f,-9.15685855e-03f,+1.16287388e-01f,+6.78773299e-02f,
+1.31193027e-01f,+1.54039785e-01f,+6.17326237e-03f,+1.83054253e-01f,-1.21679328e-01f,
+3.97564173e-02f,+6.16920739e-02f,+4.20482047e-02f,-2.27309065e-03f,+1.15156090e-02f,
+6.96303621e-02f,+3.13779563e-02f,-1.69852376e-01f,-1.15742519e-01f,+2.02628940e-01f,
-2.09686141e-02f,-1.49753213e-01f,+2.22343076e-02f,+1.15076996e-01f,+1.24487698e-01f,
+3.49164866e-02f,+1.88686430e-01f,+7.95313120e-02f,-1.53526030e-02f,+2.10827291e-01f,
+8.73156488e-02f,+1.43117607e-01f,-8.06944631e-03f,+6.98477253e-02f,+1.92414135e-01f,
+4.03833799e-02f,+3.26282904e-02f,-2.99080014e-02f,-5.99806719e-02f,-1.78531423e-01f,
-1.60954863e-01f,+9.50331762e-02f,-1.03580438e-01f,+5.95241785e-02f,-9.41980332e-02f,
+1.66534930e-01f,+1.84159651e-01f,-8.49487111e-02f,-1.68010324e-01f,-7.10347965e-02f,
-2.02789918e-01f,+1.56496570e-01f,+1.24658100e-01f,-3.57920714e-02f,-6.17790520e-02f,
-6.53188974e-02f,+1.63692892e-01f,+1.12828135e-01f,+1.25225663e-01f,+1.92710966e-01f,
+3.59469205e-02f,+5.20351492e-02f,+1.53733626e-01f,-1.62303582e-01f,+1.06016703e-01f,
-1.88316852e-01f,-1.35630220e-01f,-4.57573496e-02f,-1.46426171e-01f,-2.06509650e-01f,
-3.16530056e-02f,+1.51399925e-01f,+4.30375114e-02f,-1.64055359e-02f,-1.43332437e-01f,
+2.17691287e-01f,-1.75769150e-01f,-2.47786026e-02f,+2.05113426e-01f,-1.10526398e-01f,
+5.67428954e-02f,-5.11253551e-02f,+2.80455910e-02f,+5.01929708e-02f,-1.68670341e-01f,
-5.86585812e-02f,+1.56372771e-01f,+7.87667483e-02f,+7.98848495e-02f,+1.22513548e-01f,
+3.73094976e-02f,+1.64262146e-01f,-3.85246612e-02f,+8.68130475e-02f,+7.12596774e-02f,
-1.66323557e-01f,-5.96268922e-02f,-1.47346795e-01f,-1.57368973e-01f,-1.45406844e-02f,
-6.42579794e-02f,-4.21891175e-02f,+6.71838317e-03f,+5.63159399e-02f,+7.00805038e-02f,
+1.63003966e-01f,-1.18479967e-01f,+1.41043246e-01f,-1.95875615e-01f,+1.51814163e-01f,
-4.16936092e-02f,-3.08776498e-02f,+1.83972400e-02f,+1.08600251e-01f,-1.84258837e-02f,
-1.01754516e-01f,+1.99687496e-01f,+1.19928189e-01f,-1.37515306e-01f,+1.10329367e-01f,
+1.69283733e-01f,+1.78224787e-01f,-1.38286144e-01f,-1.46134481e-01f,-2.19292805e-01f,
+1.56209335e-01f,-1.30005687e-01f,+1.70309573e-01f,-8.96350816e-02f,-4.17194702e-02f,
-1.36299133e-01f,+2.75923684e-02f,-1.47354990e-01f,+1.37100145e-01f,+1.08083844e-01f,
+1.02062218e-01f,-2.11447075e-01f,+6.92335665e-02f,+4.04141732e-02f,-5.73742725e-02f,
+1.66064113e-01f,-1.59224011e-02f,+1.54047668e-01f,+9.04503614e-02f,-9.84678417e-02f,
-1.77046448e-01f,-4.13753167e-02f,-9.29829292e-03f,+1.06171831e-01f,+6.48851097e-02f,
-1.47997649e-04f,-3.79876569e-02f,-1.83831766e-01f,-1.34926707e-01f,+1.09963315e-02f,
+4.04616185e-02f,+1.27975792e-02f,-2.01497123e-01f,+3.82143669e-02f,+1.89932540e-01f,
-1.37741387e-01f,-1.66678578e-01f,+6.17141202e-02f,+5.98398075e-02f,+4.15044613e-02f,
+1.82408020e-01f,-1.91010103e-01f,+9.58602875e-03f,-6.25020787e-02f,+1.89046383e-01f,
+1.28062263e-01f,-2.21085958e-02f,+1.86119780e-01f,+5.32761179e-02f,-1.40294820e-01f,
-1.98654056e-01f,-3.58542874e-02f,-4.41056490e-02f,-6.31942926e-03f,-1.14027839e-02f,
-1.48863614e-01f,-1.03129677e-01f,+3.86848710e-02f,+1.62424400e-01f,+1.02670446e-01f,
+7.38017410e-02f,-1.79277241e-01f,+4.88946252e-02f,-1.45755121e-02f,+5.81158027e-02f,
-8.92589986e-02f,+2.06021108e-02f,-2.14495175e-02f,+6.10693544e-02f,+3.71214375e-02f,
-7.83267468e-02f,+1.11409016e-01f,-1.73055679e-01f,-2.08895877e-01f,-1.99857652e-01f,
-1.46729857e-01f,-1.92193985e-01f,+1.84089109e-01f,-1.71957061e-01f,+1.53888002e-01f,
-7.94926584e-02f,-6.47196248e-02f,-1.49218783e-01f,+1.41083188e-02f,-1.27460241e-01f,
+6.88513666e-02f,-8.29725862e-02f,+5.23225702e-02f,+1.92577124e-01f,-6.22606315e-02f,
+2.07380101e-01f,-3.04101105e-03f,-2.05040962e-01f,+7.56993741e-02f,-6.32801056e-02f,
-8.31301231e-03f,+7.22177327e-02f,-2.53671519e-02f,+3.93306352e-02f,-4.69795913e-02f,
-1.15034655e-01f,-6.74914792e-02f,-2.74058152e-02f,+6.72846055e-03f,-1.01980239e-01f,
+5.39003983e-02f,-1.52106836e-01f,+1.69594407e-01f,-2.20281452e-01f,-1.36948466e-01f,
+6.50283918e-02f,+1.38979003e-01f,+1.21663667e-01f,+1.22275837e-01f,+1.26581818e-01f,
+1.17727190e-01f,-9.19540226e-02f,-1.41618801e-02f,-8.14969987e-02f,-3.11304834e-02f,
-1.86507702e-01f,+9.32217855e-03f,-1.09004438e-01f,+1.54102698e-01f,-2.92684361e-02f,
-1.96133122e-01f,-1.45537734e-01f,-1.26061767e-01f,+1.27877116e-01f,-5.70473522e-02f,
-2.85138171e-02f,-4.71416265e-02f,+1.07009284e-01f,+1.14544839e-01f,-3.73245254e-02f,
-1.05069980e-01f,-6.15233481e-02f,+1.48680648e-02f,+3.13065238e-02f,-1.81532018e-02f,
-1.56980529e-01f,-7.34321624e-02f,-8.42560455e-02f,+1.45184338e-01f,+1.04224436e-01f,
-1.55752569e-01f,-4.43590954e-02f,+4.90633436e-02f,+6.25822470e-02f,+5.38134575e-02f,
-2.52648592e-02f,+8.23920667e-02f,-1.43184006e-01f,-1.21776834e-01f,+6.64419308e-02f,
-9.82181728e-02f,+6.04920387e-02f,-1.32300043e-02f,+1.76574960e-02f,+1.67395681e-01f,
-2.20307964e-03f,-6.37658387e-02f,-1.85980514e-01f,-9.98630300e-02f,-5.09968735e-02f,
+1.81457743e-01f,+1.18940137e-02f,-7.25922361e-02f,-8.04053694e-02f,-5.99312363e-03f,
+1.23770609e-01f,+1.87331647e-01f,+6.77528158e-02f,-2.48548109e-02f,+3.32958288e-02f,
+1.82635954e-03f,-3.43196094e-02f,+1.43218637e-01f,+1.26993120e-01f,+1.64794829e-02f,
-1.75880212e-02f,+1.04041751e-02f,-1.54608518e-01f,-1.78383648e-01f,-5.61645404e-02f,
+1.01911321e-01f,+1.48975223e-01f,+1.36788458e-01f,+1.03296913e-01f,-1.30647004e-01f,
-2.93376688e-02f,-1.30335987e-01f,-1.21411182e-01f,+1.48105726e-01f,+1.21341795e-01f,
+1.73384964e-01f,+5.73303923e-02f,+6.80041686e-02f,+8.29644725e-02f,+5.76898865e-02f,
-1.75380051e-01f,+7.04402998e-02f,+1.67782709e-01f,+1.62715167e-01f,-2.01630276e-02f,
-1.29681274e-01f,+3.28509472e-02f,+1.30417168e-01f,+1.65927663e-01f,+5.71385249e-02f,
+5.87673299e-02f,-2.35492229e-01f,-2.19076336e-03f,+4.32184376e-02f,-7.11494163e-02f,
-9.38570276e-02f,+1.53286725e-01f,-1.37894481e-01f,+2.03581750e-01f,+1.89775512e-01f,
+1.39895929e-02f,+1.19433716e-01f,+5.74554428e-02f,-1.04332902e-01f,+1.53205588e-01f,
+2.10956693e-01f,+2.80404650e-02f,-1.07971482e-01f,+1.11362852e-01f,+4.16907668e-02f,
+1.36432558e-01f,-1.82688907e-02f,-1.01968208e-02f,-1.12640813e-01f,+1.19175717e-01f,
+1.46130444e-02f,+1.80308819e-01f,+1.95031427e-02f,+1.92318082e-01f,+7.35972449e-02f,
-8.69623572e-02f,-1.27917320e-01f,+1.06021896e-01f,+9.17379111e-02f,-1.42249176e-02f,
-1.65468961e-01f,+1.48351952e-01f,+2.76995413e-02f,+1.37238964e-01f,-5.42611070e-02f,
-6.70997892e-04f,+1.85533300e-01f,-1.06744274e-01f,+7.28994012e-02f,+7.30982348e-02f,
-6.41657133e-03f,+8.33467692e-02f,-1.00942530e-01f,-1.14241987e-01f,+9.00136605e-02f,
+1.48310466e-03f,-1.10972419e-01f,-3.96009684e-02f,-1.37216803e-02f,-1.32251874e-01f,
+1.62154049e-01f,+6.00240491e-02f,-9.86424275e-04f,-2.20722873e-02f,-7.07152337e-02f,
+7.22477883e-02f,-1.86102197e-01f,+1.81815699e-01f,+1.95607036e-01f,-1.89135090e-01f,
-3.19246054e-02f,-1.35338560e-01f,+4.95104007e-02f,-1.13314018e-01f,+1.03403658e-01f,
-1.45320833e-01f,+5.82275027e-03f,-5.42004444e-02f,+4.60431688e-02f,+4.79434244e-02f,
-4.82478403e-02f,-4.25762916e-03f,+9.38737765e-02f,-2.72884369e-02f,-1.22978821e-01f,
-5.13434671e-02f,+1.98096588e-01f,+6.01391457e-02f,-1.61532760e-01f,+1.59502849e-01f,
-1.31033242e-01f,-5.92458397e-02f,+1.58508822e-01f,+1.00034699e-01f,+1.03199463e-02f,
-6.41209781e-02f,+1.29273171e-02f,-8.22835341e-02f,-1.67311370e-01f,-1.32599950e-01f,
+5.96437715e-02f,-5.53058721e-02f,+1.78246915e-01f,-1.81913152e-01f,-1.97742701e-01f,
-1.52078599e-01f,-7.22518787e-02f,-9.93844345e-02f,-2.45387258e-04f,+1.14565484e-01f,
+1.12790078e-01f,+1.69871926e-01f,-1.89753786e-01f,-2.39296779e-01f,-1.34618953e-02f,
+4.66194674e-02f,-1.35520071e-01f,+1.32090911e-01f,-1.71957716e-01f,-1.21643856e-01f,
-9.34490934e-02f,-5.66594861e-02f,-1.41105637e-01f,+3.15591767e-02f,+1.70207351e-01f,
+1.41057864e-01f,-4.63439990e-03f,+1.52697742e-01f,-2.28010193e-02f,-1.51448488e-01f,
+1.38564095e-01f,-1.16843671e-01f,+6.82023391e-02f,-9.48737040e-02f,-1.45287305e-01f,
-4.57481071e-02f,+1.77141681e-01f,-1.30636975e-01f,+8.45889002e-02f,+5.36023267e-02f,
+5.47737107e-02f,+1.92799881e-01f,+1.45390987e-01f,+2.09325701e-01f,+1.61178634e-01f,
+5.19369021e-02f,-1.38937429e-01f,+2.57972698e-03f,+4.88546863e-02f,+4.15857658e-02f,
+9.30785909e-02f,+5.33617754e-03f,+1.09187715e-01f,-1.88768301e-02f,+1.14099801e-01f,
+1.66702732e-01f,-1.42662361e-01f,+1.31758936e-02f,+1.53963342e-01f,-1.50823325e-01f,
-9.26012639e-03f,+1.68442011e-01f,+4.89356443e-02f,+2.20027305e-02f,+6.96484223e-02f,
+1.02266409e-01f,-3.71165052e-02f,+1.22447982e-01f,+6.01196699e-02f,+1.65946394e-01f,
+1.29023552e-01f,+1.81039393e-01f,+1.79356322e-01f,-3.23369466e-02f,-1.49290204e-01f,
+5.20183034e-02f,-1.32086471e-01f,-8.13801363e-02f,-1.78621784e-01f,-1.34609178e-01f,
+2.03185514e-01f,+1.17728405e-01f,+1.59007579e-01f,-9.25172269e-02f,+5.19645587e-02f,
+2.13862464e-01f,+1.59855127e-01f,+9.68957990e-02f,-1.25197187e-01f,+1.48923337e-01f,
+1.79411024e-01f,-8.36205035e-02f,-7.12164268e-02f,-4.85404469e-02f,-1.78746462e-01f,
-1.38085097e-01f,-1.40147567e-01f,-1.31218687e-01f,+9.08587575e-02f,-5.33052459e-02f,
-6.23804443e-02f,+1.55656964e-01f,-1.99559957e-01f,-6.31848425e-02f,-2.30063260e-01f,
+1.35131013e-02f,-7.71164820e-02f,-1.66211143e-01f,-1.30552158e-01f,+4.33319956e-02f,
+8.22268799e-02f,+2.54142880e-01f,-1.08881318e-03f,+1.41214773e-01f,-1.24863818e-01f,
+1.68307975e-01f,-1.26530513e-01f,+3.17198709e-02f,-1.41929492e-01f,-1.67326704e-01f,
-2.53989529e-02f,-1.73736215e-01f,-7.94701651e-02f,-1.85274959e-01f,+1.20749474e-01f,
+6.03236146e-02f,+8.14207867e-02f,+2.35735215e-02f,+1.27610922e-01f,+5.94235323e-02f,
+1.22188710e-01f,+9.59120020e-02f,+5.00867888e-02f,-8.07094425e-02f,+2.59782411e-02f,
+1.02622874e-01f,-1.73297748e-01f,+8.59107301e-02f,+1.74725354e-01f,-1.44664809e-01f,
-5.93086071e-02f,+2.04838663e-01f,+1.35227144e-01f,-2.05771461e-01f,-1.06801093e-01f,
-9.98133607e-03f,-9.15208608e-02f,+1.66594207e-01f,-2.24520266e-01f,-5.20475693e-02f,
-1.34259731e-01f,+1.92484371e-02f,-7.97401443e-02f,+1.73644200e-02f,-5.24731129e-02f,
+1.26543283e-01f,+4.41898368e-02f,+1.28236532e-01f,+1.99575782e-01f,-5.36643080e-02f,
-1.31457373e-01f,+5.88073246e-02f,+7.94293508e-02f,-1.49828047e-01f,-8.79934132e-02f,
-3.82433720e-02f,+7.55058900e-02f,+5.42490184e-02f,+1.18304184e-02f,-9.95950866e-03f,
+1.56880453e-01f,+1.04999870e-01f,+5.94981611e-02f,+4.46378887e-02f,+1.03934087e-01f,
+8.94019827e-02f,+6.97846860e-02f,+1.79538652e-01f,+2.89380066e-02f,+3.52713317e-02f,
+1.35338604e-01f,+2.74079144e-02f,+5.74052101e-03f,+1.67747706e-01f,+1.64280057e-01f,
+3.73239927e-02f,-1.70626462e-01f,+2.53448561e-02f,-1.51410494e-02f,-6.60482869e-02f,
+5.55202365e-02f,-1.07595317e-01f,-2.02968732e-01f,-1.82564110e-01f,-8.45144838e-02f,
-1.58242926e-01f,-6.11636192e-02f,-1.41066760e-01f,+1.47123247e-01f,-1.43533379e-01f,
-1.49424583e-01f,-6.47661164e-02f,+7.28872791e-02f,+3.13790292e-02f,-1.72009841e-01f,
-1.38378084e-01f,-1.64982360e-02f,-1.80750415e-01f,-1.46960452e-01f,+7.50081763e-02f,
-4.67745699e-02f,+1.12975851e-01f,-2.00624436e-01f,+1.35072529e-01f,-7.39020258e-02f,
-1.96015954e-01f,-1.09267004e-01f,+9.07708257e-02f,-1.73609674e-01f,+1.45668224e-01f,
+1.61874592e-01f,-1.25520471e-02f,-1.67827383e-01f,-1.31333023e-01f,+2.01718539e-01f,
-1.00990407e-01f,-2.42420137e-01f,+7.18391165e-02f,+4.52375505e-03f,+1.67366117e-01f,
-3.18689905e-02f,+1.46824911e-01f,-1.01011507e-01f,-3.80298682e-02f,+8.17661956e-02f,
+9.22356397e-02f,-9.04535502e-02f,-4.09528939e-03f,+1.21266745e-01f,+1.59685194e-01f,
+3.00239101e-02f,-1.80830851e-01f,+1.68290049e-01f,-1.12198502e-01f,+1.42394766e-01f,
-1.36246532e-01f,+6.65592179e-02f,+8.33494763e-04f,-1.05555125e-01f,+2.12028980e-01f,
+1.79277226e-01f,+1.21701449e-01f,-1.40520692e-01f,-1.21032409e-01f,-1.97490484e-01f,
}; 

float dense_13_bias_array[128] = {
+4.94060479e-03f,+4.25569601e-02f,-2.82043638e-03f,-1.04284231e-02f,+2.15707570e-02f,
+5.85272908e-02f,+2.83106193e-02f,+1.92252938e-02f,-2.20347010e-02f,+1.55893052e-02f,
-5.14185615e-03f,+7.57351238e-03f,+2.01441459e-02f,+2.72823907e-02f,+3.58328260e-02f,
-5.89064904e-04f,+2.93711312e-02f,-7.47326948e-03f,+5.37039265e-02f,-1.89482775e-02f,
+1.85856391e-02f,+5.30516393e-02f,-4.94218245e-02f,+9.63454600e-03f,+1.48740532e-02f,
-2.33540148e-03f,-1.70532204e-02f,-2.03084126e-02f,+6.36155754e-02f,+2.83529013e-02f,
+1.68857921e-03f,+1.74052082e-02f,+3.40319984e-02f,+3.71476784e-02f,+6.52068108e-03f,
+6.96401224e-02f,-9.63199232e-03f,+3.16732675e-02f,-1.52354641e-02f,+4.53576865e-03f,
-1.46476272e-02f,+2.85349470e-02f,+1.53736491e-02f,+1.96164637e-03f,+1.12862652e-02f,
+3.92189287e-02f,+4.09118310e-02f,+2.99315937e-02f,+9.46594216e-03f,+6.32454157e-02f,
-3.45492102e-02f,+2.62350682e-02f,-1.50764622e-02f,-1.03823291e-02f,-2.64732800e-02f,
-4.99029830e-02f,+4.43055294e-02f,+2.95114536e-02f,+2.43691485e-02f,-2.74665058e-02f,
+2.18825117e-02f,+5.68343420e-03f,+3.97479720e-02f,-9.69562028e-03f,+3.67368944e-02f,
+2.00146846e-02f,+1.49988495e-02f,-1.71607919e-02f,+2.41934899e-02f,+3.26033086e-02f,
-3.16065438e-02f,+6.14552572e-02f,+1.81568582e-02f,+9.24330670e-03f,+4.46211584e-02f,
-3.04876436e-02f,+2.56208293e-02f,+2.90764552e-02f,-2.05307622e-02f,+3.63614298e-02f,
+1.34816943e-02f,+2.28875261e-02f,+2.06041075e-02f,-1.14751805e-03f,-1.22205503e-02f,
+4.09849770e-02f,-6.86168075e-02f,-2.33865678e-02f,+4.08481173e-02f,+1.04376231e-03f,
+4.35228050e-02f,+4.50800918e-02f,-1.21422205e-02f,+2.82791294e-02f,+3.60012203e-02f,
+2.87050102e-02f,+1.00943102e-02f,+2.80304011e-02f,+3.24127376e-02f,+5.74058965e-02f,
-1.76317822e-02f,-5.30779781e-03f,-6.16755919e-04f,+6.61628693e-02f,+9.42907017e-03f,
+3.75695974e-02f,+7.22418074e-04f,+1.33979199e-02f,+5.74350469e-02f,+4.68915142e-02f,
+3.49983945e-02f,-2.83850413e-02f,+3.28191593e-02f,+3.20112519e-02f,+1.87542830e-02f,
+2.58095153e-02f,+2.24574562e-02f,+1.59503222e-02f,+1.44547317e-02f,-3.77642247e-03f,
+2.81993840e-02f,+3.79980393e-02f,+4.53609936e-02f,+5.52136526e-02f,-1.00685162e-02f,
+2.18549762e-02f,-1.71145098e-03f,+4.84541990e-02f,};

float dense_13_fwork[2580] = {0}; 

float dense_14_output_array[32]={0} ; 

float dense_14_kernel_array[4096] = {
+1.61365598e-01f,-1.38355851e-01f,-3.53030860e-02f,-9.43936184e-02f,+1.35676026e-01f,
+1.79367438e-01f,+4.05196436e-02f,-1.03993125e-01f,+3.64772901e-02f,-2.00836107e-01f,
+1.81595057e-01f,-9.35838837e-03f,-6.27286499e-03f,+1.70651451e-02f,-1.21305786e-01f,
-1.66682452e-01f,-6.26731068e-02f,+1.08723789e-02f,-1.09807558e-01f,-1.00932568e-01f,
+1.63758636e-01f,+1.22612670e-01f,+1.62991181e-01f,-5.06009832e-02f,+1.03203006e-01f,
+3.35347243e-02f,-2.35979408e-02f,+3.45900245e-02f,-1.28140911e-01f,-1.98519662e-01f,
-1.44821376e-01f,-9.67059750e-03f,+1.40230477e-01f,-1.53516233e-01f,+1.02357410e-01f,
+6.48979917e-02f,-1.11118397e-02f,-1.65748686e-01f,+9.81558859e-02f,-1.12194410e-02f,
+1.47792146e-01f,+2.09928658e-02f,-7.00863078e-02f,-1.28115982e-01f,+3.13376263e-02f,
+1.35881618e-01f,+5.24026863e-02f,+1.83101118e-01f,-8.26681107e-02f,-2.22382098e-02f,
-9.54042375e-02f,+1.19589493e-01f,+4.21549901e-02f,+4.35315035e-02f,+1.36603573e-02f,
+1.62308484e-01f,+1.67034030e-01f,-8.56977776e-02f,-4.45889756e-02f,+1.46579236e-01f,
-1.61915630e-01f,+1.68226615e-01f,-3.73909511e-02f,-3.50829512e-02f,-1.73329934e-01f,
-6.81191385e-02f,+7.11132288e-02f,+1.68259770e-01f,-1.93166196e-01f,+1.33172065e-01f,
+1.27263859e-01f,+1.71761081e-01f,-7.89453462e-02f,+8.83880854e-02f,+1.02130070e-01f,
-1.73768803e-01f,+9.99953002e-02f,-7.98611268e-02f,-1.58768266e-01f,+7.23514929e-02f,
+1.42319977e-01f,-2.48355102e-02f,-1.82817772e-01f,-1.66322336e-01f,+9.13897604e-02f,
+1.56037986e-01f,-4.53802384e-02f,-1.35563582e-01f,-1.44586504e-01f,+3.94557677e-02f,
-1.37305390e-02f,+8.29872955e-03f,+2.19910458e-01f,-1.49618968e-01f,+2.00817972e-01f,
+1.06222302e-01f,-8.45857784e-02f,+1.48471504e-01f,+4.11276072e-02f,+1.66352794e-01f,
-8.01641718e-02f,-4.30550538e-02f,+1.56763881e-01f,-1.62053943e-01f,-9.84769687e-02f,
-1.86352685e-01f,+2.86226179e-02f,-9.39010605e-02f,+8.19968507e-02f,-1.15910165e-01f,
+1.68707162e-01f,-8.60145912e-02f,+1.26216918e-01f,-6.10840581e-02f,+2.18923748e-01f,
+1.69071808e-01f,+1.63077101e-01f,-8.21133107e-02f,+1.48888245e-01f,+1.52148694e-01f,
-1.23175703e-01f,-5.07880049e-03f,+3.88448276e-02f,+8.31154287e-02f,-1.15619384e-01f,
+1.76593751e-01f,+1.24862686e-01f,-1.49411753e-01f,-1.93981305e-01f,+3.15467939e-02f,
+7.96119198e-02f,-1.13505378e-01f,-1.42405018e-01f,+1.02666706e-01f,+2.19824594e-02f,
+7.97131285e-02f,+2.72287223e-02f,-3.51599194e-02f,-4.00885753e-02f,-9.45529491e-02f,
-1.39870923e-02f,+9.13746133e-02f,-9.09399018e-02f,+6.42583519e-02f,+1.15838267e-01f,
+4.67149913e-02f,-5.21105379e-02f,-8.26647207e-02f,+1.56285688e-01f,+1.46951050e-01f,
+1.37112653e-02f,-7.05056489e-02f,+9.65040028e-02f,+1.28731892e-01f,+5.64007163e-02f,
-1.70196235e-01f,-1.23626128e-01f,+1.37052134e-01f,+6.88936263e-02f,+9.14537832e-02f,
+4.64483723e-02f,+1.43640965e-01f,+6.92495033e-02f,-1.41870528e-01f,-1.16314411e-01f,
+9.35041625e-03f,-5.03643081e-02f,-6.29657730e-02f,+3.00329179e-02f,-1.58378527e-01f,
-1.14459299e-01f,-1.51720345e-01f,+1.71922132e-01f,-1.84140414e-01f,-1.32050678e-01f,
-2.24350214e-01f,+1.21433422e-01f,+8.44977126e-02f,-7.08660260e-02f,-2.61193458e-02f,
-2.01799333e-01f,+2.24088043e-01f,+1.00703619e-01f,+1.14725851e-01f,-1.00939207e-01f,
-9.10513401e-02f,+1.41505703e-01f,+9.69207585e-02f,+1.73065830e-02f,+9.85450521e-02f,
+2.33405009e-01f,+2.09401280e-01f,-1.01096861e-01f,+1.26060560e-01f,-1.27724856e-01f,
-1.20075807e-01f,-1.14978105e-01f,-1.18446276e-01f,+8.18939731e-02f,+1.70429766e-01f,
-3.08448207e-02f,-6.52829036e-02f,+2.36395583e-01f,+7.87372515e-02f,+1.01677515e-01f,
-4.12762389e-02f,+5.21969721e-02f,+2.01170472e-03f,-1.95462815e-02f,+1.58022180e-01f,
-1.54263424e-02f,-7.88332894e-02f,-2.14457721e-01f,+1.07436560e-01f,+5.47443666e-02f,
+6.54485484e-04f,-1.39621332e-01f,+1.31621793e-01f,+5.86182717e-03f,-5.47254682e-02f,
+5.14547825e-02f,-1.86283112e-01f,-1.32603049e-01f,+2.42615446e-01f,+4.21807580e-02f,
+1.23657659e-01f,+1.42284185e-01f,+9.95149687e-02f,+1.51014328e-01f,+1.66173801e-01f,
+6.77532032e-02f,+3.28370109e-02f,+2.03520395e-02f,-7.44174868e-02f,+1.73831761e-01f,
+1.56103566e-01f,-1.13114916e-01f,-1.65283576e-01f,+3.82333882e-02f,-6.54017553e-02f,
-7.35930279e-02f,-1.16325095e-01f,-1.74103677e-01f,-7.63266832e-02f,-4.18165550e-02f,
-1.42691270e-01f,+4.31040339e-02f,+9.00583416e-02f,+1.82506338e-01f,+1.24125808e-01f,
+2.19922900e-01f,-1.71896920e-01f,+2.22898155e-01f,-2.33222302e-02f,+8.81211832e-02f,
-7.18299896e-02f,-1.29588591e-02f,-1.06443204e-02f,+1.77347690e-01f,-5.01341559e-02f,
-1.59862861e-01f,-1.18227236e-01f,+1.69277653e-01f,-1.62734360e-01f,+4.82847579e-02f,
-1.16399899e-01f,+2.19219789e-01f,-3.72759183e-03f,+4.35019247e-02f,-1.72558462e-03f,
+4.37836424e-02f,-1.78545132e-01f,+8.70517790e-02f,+1.09934010e-01f,-3.32938619e-02f,
+6.07253760e-02f,-1.94064826e-01f,-8.74423161e-02f,-4.72754277e-02f,-6.53711101e-03f,
+1.50886968e-01f,-1.33589029e-01f,-1.11533612e-01f,-1.01013534e-01f,+1.20556206e-01f,
+3.82350961e-04f,+1.79459006e-01f,+5.00408970e-02f,+4.62074429e-02f,-5.41123450e-02f,
-1.26086593e-01f,+9.91410017e-02f,+1.12498567e-01f,+5.88609837e-03f,+1.00974075e-01f,
+9.93216131e-03f,-1.52319595e-01f,+1.49299636e-01f,-3.32625918e-02f,-7.70407617e-02f,
+1.45455822e-01f,-1.69924259e-01f,-1.49314150e-01f,-2.09381748e-02f,-1.50118649e-01f,
-1.41021013e-01f,+1.18339583e-01f,+1.52915969e-01f,+1.20063014e-02f,+2.11518124e-01f,
+1.62030771e-01f,-2.20984537e-02f,+2.31566187e-02f,+1.16391346e-01f,+3.87928896e-02f,
+1.54128745e-01f,+2.51022987e-02f,+8.15769359e-02f,+1.71382785e-01f,-4.06293720e-02f,
+7.61255771e-02f,+9.86307189e-02f,-1.98473364e-01f,-8.77079740e-02f,-1.42218009e-01f,
-1.09764840e-02f,+1.42014578e-01f,-6.82069883e-02f,+6.63188286e-03f,+6.14586510e-02f,
+1.05011418e-01f,+4.32762727e-02f,-1.54137418e-01f,-4.79353555e-02f,-1.06205314e-01f,
-2.18834490e-01f,+1.22550450e-01f,-6.03214242e-02f,-1.58906236e-01f,+8.25861394e-02f,
-7.00305179e-02f,+1.36986496e-02f,-7.10845813e-02f,+5.35159856e-02f,+1.22098938e-01f,
+1.03835322e-01f,+1.08865775e-01f,+1.14358358e-01f,+1.95423141e-01f,-4.25178967e-02f,
-1.58169910e-01f,-1.38519883e-01f,+5.25725149e-02f,-5.82750421e-04f,-1.22280456e-01f,
-1.48885190e-01f,+1.39439940e-01f,-1.57059044e-01f,+1.70086309e-01f,-9.26029757e-02f,
-1.47185162e-01f,-1.00430652e-01f,+1.53206617e-01f,-2.54841219e-03f,+1.21268101e-01f,
+1.35027766e-01f,+1.40080392e-01f,+2.07945302e-01f,-4.02412750e-02f,+2.13988766e-01f,
+2.03550011e-01f,-4.21674922e-02f,-1.34721026e-01f,-5.00780204e-03f,-1.86306402e-01f,
-8.47574174e-02f,-1.41483203e-01f,+1.86073378e-01f,-6.53436258e-02f,+1.76401883e-01f,
+1.54748596e-02f,+1.60114169e-02f,+2.64420770e-02f,-1.52530715e-01f,-5.16968593e-02f,
-1.01186030e-01f,+1.08503945e-01f,+4.80392165e-02f,+2.02213690e-01f,+1.63621262e-01f,
+1.87330633e-01f,-9.93827432e-02f,+3.76727805e-02f,-1.86391920e-01f,+1.02950513e-01f,
-1.42815903e-01f,+1.79768920e-01f,-6.18571676e-02f,-1.33582115e-01f,+1.14043429e-01f,
-9.13392194e-03f,+8.10074210e-02f,+8.46158154e-03f,-9.83814523e-02f,-3.42614092e-02f,
+1.53366193e-01f,-1.43887118e-01f,+6.57933578e-02f,-2.99164336e-02f,-1.42687440e-01f,
-1.27263829e-01f,-6.62470460e-02f,-1.62207872e-01f,-5.21325134e-03f,-4.16286029e-02f,
+5.83165251e-02f,+1.14451177e-01f,+1.68141842e-01f,+2.23810058e-02f,-1.32392794e-01f,
+6.94390833e-02f,+1.41966224e-01f,-1.53658345e-01f,-1.75718725e-01f,+9.60456952e-02f,
-8.74010623e-02f,+2.25757658e-01f,+1.22678533e-01f,-5.12527004e-02f,-1.45653322e-01f,
+5.82393482e-02f,-1.55212015e-01f,+1.97267205e-01f,+4.61264215e-02f,+5.51211163e-02f,
+5.92644885e-02f,-1.34977788e-01f,+1.35206684e-01f,-1.49182782e-01f,-1.11684553e-01f,
+2.65641548e-02f,+1.04511268e-01f,+2.02777058e-01f,-5.30575104e-02f,-2.31440086e-02f,
-5.86627750e-04f,+3.16390805e-02f,-3.09473835e-02f,-1.63260907e-01f,-6.11918382e-02f,
+2.94349212e-02f,+3.62961777e-02f,+8.68200287e-02f,+1.92059964e-01f,-1.08368404e-01f,
-1.99162439e-01f,+7.28529170e-02f,-1.61046907e-01f,-7.30474666e-02f,-2.02740088e-01f,
-3.95291224e-02f,-2.17191111e-02f,+1.86781108e-01f,-1.87265530e-01f,-1.69005478e-04f,
+5.29810488e-02f,-1.37241483e-01f,+9.64787453e-02f,+8.40760022e-02f,-1.25982344e-01f,
-1.32179826e-01f,+5.34675457e-02f,+1.44310907e-01f,+3.05546727e-02f,+2.16681674e-01f,
+4.24883217e-02f,-1.14308018e-03f,-7.92719200e-02f,-4.51877527e-02f,+3.86269912e-02f,
-1.54700316e-02f,-1.56726152e-01f,-2.25982554e-02f,+1.57282427e-01f,+4.29184884e-02f,
+1.28012732e-01f,-1.73735991e-02f,+1.90934017e-01f,+1.00938499e-01f,+1.67788029e-01f,
-3.92968021e-02f,-8.78456533e-02f,-3.40698771e-02f,+4.56173122e-02f,+1.50933534e-01f,
-7.91636258e-02f,+1.49618879e-01f,+2.21320450e-01f,+2.43301922e-03f,-1.89005695e-02f,
+1.77343011e-01f,+1.80926517e-01f,+6.23400547e-02f,-5.74996732e-02f,+1.91235512e-01f,
+1.47291631e-01f,-1.65804803e-01f,+1.78389803e-01f,+8.77932161e-02f,-1.47850826e-01f,
-2.05840841e-01f,-5.15743233e-02f,-1.16188861e-01f,-9.36132893e-02f,+1.29399434e-01f,
+1.56869739e-01f,-3.22688110e-02f,-1.41184434e-01f,+1.96510434e-01f,-1.58793941e-01f,
+8.18961114e-02f,-1.43055946e-01f,-8.25133547e-02f,-1.34845385e-02f,+1.08060827e-02f,
+1.72468051e-01f,-5.95162362e-02f,+2.24285483e-01f,-8.79043564e-02f,+8.93011615e-02f,
-1.13816753e-01f,-1.26846150e-01f,+1.42733892e-02f,+1.22594878e-01f,+1.62436843e-01f,
-5.09115905e-02f,-7.53352465e-03f,+1.51308447e-01f,-4.74699214e-02f,-2.40029469e-02f,
-1.62474185e-01f,+2.14474887e-01f,+6.33405745e-02f,+1.36527615e-02f,+2.99334954e-02f,
+9.94327739e-02f,-1.29359305e-01f,-1.93540286e-02f,-1.86190382e-02f,+2.03084592e-02f,
+1.77559659e-01f,+1.44342944e-01f,-1.08846366e-01f,+1.19559027e-01f,-8.66305828e-02f,
+9.83260572e-02f,-6.89374283e-02f,+6.72064498e-02f,-1.93421364e-01f,+1.94178879e-01f,
+1.47438332e-01f,+4.41585109e-02f,+2.32060969e-01f,+1.67867020e-01f,-5.88418320e-02f,
+6.77897707e-02f,+1.16612069e-01f,+1.17218941e-01f,-9.74813104e-02f,+1.69648111e-01f,
-1.70373067e-01f,-2.00816050e-01f,+1.74107462e-01f,-3.42010111e-02f,+7.42728338e-02f,
-7.20160455e-02f,-1.09990247e-01f,+6.04002848e-02f,+1.83496580e-01f,-7.60340914e-02f,
+1.94103733e-01f,-1.07419029e-01f,-4.08017077e-02f,+1.13281973e-01f,+5.91770895e-02f,
+7.20450133e-02f,-6.63230941e-02f,+1.03373803e-01f,+1.62635483e-02f,-1.18783042e-01f,
+3.66005637e-02f,+1.71817765e-01f,+2.70240679e-02f,+1.31315514e-01f,-3.87866125e-02f,
+1.24810249e-01f,+1.37901917e-01f,+1.13403566e-01f,-3.31561714e-02f,+9.55252151e-04f,
+1.80578511e-03f,-5.59079610e-02f,+6.30880520e-02f,+2.50012930e-02f,+1.56667337e-01f,
+1.84122607e-01f,-1.74601346e-01f,-3.37267527e-03f,+1.48977607e-01f,-7.72035494e-02f,
+1.41815141e-01f,-1.79153904e-02f,+7.42383897e-02f,+1.42115846e-01f,-4.92603704e-02f,
-1.84980452e-01f,-1.25929592e-02f,-6.21293262e-02f,-2.86813658e-02f,-1.64082162e-02f,
-1.06159106e-01f,+1.10214852e-01f,+1.94228560e-01f,-2.05826276e-04f,-9.32515040e-02f,
-2.59795617e-02f,+4.00836468e-02f,-1.15915619e-01f,+8.76314938e-02f,+3.93812209e-02f,
+7.02613667e-02f,-1.60605744e-01f,+1.43883064e-01f,+1.84374884e-01f,+3.55198281e-03f,
+7.79397637e-02f,-5.62800430e-02f,-1.80673867e-01f,-5.87853827e-02f,-1.15563013e-01f,
-1.59300327e-01f,-1.80070966e-01f,-1.70772240e-01f,-5.25741838e-02f,-9.79152247e-02f,
-1.02902874e-01f,+2.16055989e-01f,-5.67709617e-02f,-1.14587940e-01f,-2.08836626e-02f,
-1.12584934e-01f,+1.27903325e-03f,-1.58261284e-01f,+3.88833135e-02f,+4.17999364e-02f,
-1.11524753e-01f,-1.28490448e-01f,-2.34770036e-04f,+1.93793461e-01f,+1.68930925e-02f,
+8.29546526e-02f,+1.39776930e-01f,+3.44605977e-03f,+1.82504714e-01f,+8.48937184e-02f,
-1.31640583e-01f,-1.35995671e-01f,+3.17427553e-02f,-1.19015388e-01f,+1.59526139e-01f,
-1.44085968e-02f,-1.35036439e-01f,+5.63527346e-02f,+3.95231284e-02f,+1.34984583e-01f,
-1.14505850e-01f,+1.50957122e-01f,+1.13718070e-01f,+1.31059494e-02f,+5.10082915e-02f,
+4.79274802e-02f,-1.34888023e-01f,-1.02550779e-02f,-5.53411581e-02f,+1.91716731e-01f,
+7.58417398e-02f,-1.34232849e-01f,-1.03829158e-02f,-6.94813132e-02f,+1.78829029e-01f,
+5.16845733e-02f,-1.81851208e-01f,+7.57794008e-02f,+1.79539382e-01f,+7.67869353e-02f,
+1.78577274e-01f,+6.24503121e-02f,-1.21133886e-01f,+2.07493212e-02f,-4.07578237e-02f,
+7.75293931e-02f,+4.63085733e-02f,-2.82274820e-02f,+1.89783856e-01f,+1.53014645e-01f,
+1.07483245e-01f,-1.18680231e-01f,+6.48950785e-02f,-3.46118920e-02f,-2.50772256e-02f,
-1.14307314e-01f,+1.60423890e-01f,+8.48768577e-02f,-1.90534383e-01f,+1.69211119e-01f,
-1.38209075e-01f,-1.63454205e-01f,+1.47031561e-01f,-1.27197057e-02f,+8.31728056e-02f,
+3.54339071e-02f,+1.12410977e-01f,-6.34810403e-02f,-1.38012737e-01f,-1.40766129e-01f,
-1.41946360e-01f,-8.99032429e-02f,-5.21898046e-02f,-1.37845308e-01f,+1.62636861e-02f,
-1.33736342e-01f,-1.23696208e-01f,-8.87742043e-02f,+1.24885641e-01f,+1.50853544e-01f,
+1.75860580e-02f,-1.56621113e-01f,+7.57107660e-02f,+1.11372679e-01f,-1.64953813e-01f,
-8.74869749e-02f,+6.62156269e-02f,+1.34837940e-01f,-4.75246496e-02f,-1.09065115e-01f,
+1.73376173e-01f,-4.93451655e-02f,+1.38785243e-01f,-1.56214491e-01f,+9.72350836e-02f,
-9.04825106e-02f,-9.23973173e-02f,+8.09293836e-02f,+2.08827138e-01f,-1.60755590e-01f,
-5.68558872e-02f,-3.15884920e-03f,+1.45181566e-01f,+1.39252529e-01f,-6.47074580e-02f,
-5.95587716e-02f,+1.34339124e-01f,+1.37701660e-01f,+9.84571427e-02f,+7.16909170e-02f,
+3.77038866e-02f,-1.33743172e-03f,+1.70453206e-01f,-1.58164144e-01f,-1.21649608e-01f,
+3.56951840e-02f,+6.26734495e-02f,+1.14542760e-01f,-8.99463668e-02f,-1.44297350e-02f,
-1.50154114e-01f,+1.54357627e-01f,+1.24316961e-01f,-1.02190413e-01f,+1.95046932e-01f,
-1.23562612e-01f,+5.90285882e-02f,-7.26993987e-03f,+1.41045079e-01f,-1.77774038e-02f,
-1.14456810e-01f,+1.32786363e-01f,+1.69294283e-01f,+1.28184333e-01f,+1.69940457e-01f,
+5.54876141e-02f,+1.02709040e-01f,+1.38212591e-01f,-1.30804494e-01f,-1.00790888e-01f,
+1.45242304e-01f,+4.87033464e-02f,-1.05335690e-01f,-3.23914317e-03f,+1.38173150e-02f,
-1.42729893e-01f,+2.03798920e-01f,+8.10751393e-02f,-1.38849258e-01f,-1.89188078e-01f,
+1.38921160e-02f,-2.25257762e-02f,-9.27809030e-02f,-7.34867752e-02f,+5.48205003e-02f,
-1.50908351e-01f,-1.03051588e-01f,-8.40222836e-02f,+1.91556275e-01f,-1.68311626e-01f,
+1.12789214e-01f,+1.61820158e-01f,-3.22592445e-02f,-4.27652560e-02f,+1.24037966e-01f,
-4.09472436e-02f,+1.70105606e-01f,-1.90178022e-01f,+1.20324530e-02f,+1.99063122e-01f,
-1.01109393e-01f,+7.79187754e-02f,+1.02633685e-01f,+2.47711483e-02f,+5.24502136e-02f,
+3.12673561e-02f,+1.58521533e-02f,+1.44947506e-02f,-2.61819810e-02f,-8.46552551e-02f,
+1.43744215e-01f,-5.65037690e-02f,-6.43715039e-02f,-1.59123428e-02f,-7.83929154e-02f,
+1.23994887e-01f,+6.74941987e-02f,+8.31548721e-02f,+4.43069302e-02f,-1.77779064e-01f,
+3.33288461e-02f,+1.77240491e-01f,-3.25660855e-02f,-1.78433836e-01f,+8.71396810e-02f,
+1.35767058e-01f,+1.59845755e-01f,-6.96542263e-02f,-1.70878004e-02f,-1.06643237e-01f,
-6.29350834e-04f,+1.22090012e-01f,+1.45157903e-01f,-7.00740740e-02f,-1.01007648e-01f,
+6.32198006e-02f,+8.62951111e-03f,+1.51982024e-01f,-1.32548913e-01f,+2.29680687e-02f,
+4.42453362e-02f,+1.40214590e-02f,-1.46003321e-01f,-6.00415766e-02f,-4.58273999e-02f,
-3.91940139e-02f,-1.16962105e-01f,+1.36452140e-02f,-1.12398528e-01f,+1.60498694e-01f,
+5.34276329e-02f,+1.67829454e-01f,-3.11511364e-02f,+4.63579455e-03f,-4.81152581e-03f,
+5.49515262e-02f,-4.40303609e-02f,-7.54742324e-03f,-6.50686398e-02f,-8.02028775e-02f,
-1.52883725e-03f,+1.24036931e-01f,-2.00522721e-01f,-1.22869574e-01f,-1.51927536e-02f,
+1.26120225e-01f,-3.82949552e-03f,-2.09986195e-02f,+1.22518420e-01f,-3.61294970e-02f,
-1.12113006e-01f,-1.46515593e-02f,+1.96306407e-01f,+2.25030512e-01f,+8.11086968e-02f,
+1.47614516e-02f,-7.28789493e-02f,+1.78356722e-01f,+1.90501705e-01f,+7.68122748e-02f,
+3.73972803e-02f,-1.78503040e-02f,-3.17040831e-02f,+7.26517960e-02f,+1.82233185e-01f,
+6.38486445e-02f,-1.08007170e-01f,+1.30372122e-01f,+1.11350305e-01f,+8.70551541e-02f,
+8.35236982e-02f,-6.21705912e-02f,+2.07309604e-01f,-2.19680518e-01f,-1.08574564e-02f,
-1.64341226e-01f,+1.96021140e-01f,+8.88403058e-02f,-1.14301331e-01f,+1.56377912e-01f,
+1.14476323e-01f,-3.25961150e-02f,+1.04966991e-01f,-6.26826733e-02f,+1.73683614e-01f,
-8.64779130e-02f,-9.72409844e-02f,-3.26712243e-02f,-1.28331557e-01f,-1.56503305e-01f,
-4.89220768e-02f,-2.10619882e-01f,+1.09973364e-01f,-1.76204368e-01f,-3.59454714e-02f,
-4.68104817e-02f,+1.61625147e-01f,-4.77690436e-02f,-6.96956366e-02f,-4.87105316e-03f,
+1.59296617e-01f,-7.46678859e-02f,-9.38216820e-02f,+5.08419191e-03f,+1.42655268e-01f,
-3.14456634e-02f,-2.92507298e-02f,-1.08468160e-01f,+2.18154997e-01f,+2.11713195e-01f,
-4.42884900e-02f,-1.55760646e-01f,-1.01402171e-01f,+1.82049647e-01f,+8.35341886e-02f,
+7.70217553e-02f,+5.52550107e-02f,-1.30144939e-01f,-1.62375234e-02f,+7.41531998e-02f,
+1.24893643e-01f,+1.91606462e-01f,+6.53315755e-03f,-6.85525639e-03f,-8.33442286e-02f,
-2.19903681e-02f,+2.23907568e-02f,-1.86768159e-01f,-9.10881758e-02f,-7.80230388e-02f,
+9.30056199e-02f,-3.63344066e-02f,+6.58792024e-03f,+1.77696675e-01f,+1.70876086e-01f,
+1.92195669e-01f,-5.30320741e-02f,+3.59018110e-02f,+1.47788256e-01f,+2.16332361e-01f,
-3.15588415e-02f,-1.85297076e-02f,+1.25633419e-01f,-4.60086530e-03f,+1.74918249e-01f,
+1.48475274e-01f,+1.23423979e-01f,+8.02175552e-02f,+1.82659552e-01f,+2.21031830e-01f,
-1.33244231e-01f,+1.06800571e-01f,-1.73264459e-01f,+2.23638471e-02f,-1.92073122e-01f,
+1.05675153e-01f,-1.28290191e-01f,-1.67798042e-01f,-9.81232598e-02f,+1.75402731e-01f,
-5.19441701e-02f,-2.38228850e-02f,-2.43432876e-02f,-1.15044259e-01f,-4.75916937e-02f,
-1.02532312e-01f,-4.13739681e-02f,+5.68099841e-02f,-1.08006513e-02f,+1.64355293e-01f,
+1.96902063e-02f,+1.08186305e-01f,-2.62022037e-02f,+4.62727919e-02f,-6.28724694e-02f,
-9.81867388e-02f,+4.36832272e-02f,-1.98095981e-02f,+3.80189419e-02f,+1.40264665e-03f,
+1.82386547e-01f,-1.48125619e-01f,+1.65788800e-01f,+8.38009715e-02f,-5.98379336e-02f,
-1.48443813e-02f,+2.99355555e-02f,+1.25892937e-01f,-1.22220442e-01f,+1.77069008e-01f,
-2.35218685e-02f,-2.33628247e-02f,+1.78032443e-01f,+3.42019871e-02f,-1.76911071e-01f,
+6.93181530e-02f,+1.66839525e-01f,+1.93668365e-01f,+4.94649597e-02f,-9.92132723e-02f,
-3.50563340e-02f,-3.53084616e-02f,+1.38573408e-01f,-9.19479355e-02f,-1.50052071e-01f,
+5.20712063e-02f,+1.80991337e-01f,+8.52693245e-02f,+1.13780208e-01f,+8.78637098e-03f,
+1.15403600e-01f,-2.11264893e-01f,+1.19618155e-01f,+1.72153175e-01f,-1.86871544e-01f,
-1.21169619e-01f,+1.07826084e-01f,-9.06217843e-02f,-2.01147601e-01f,-8.93015563e-02f,
+1.12002149e-01f,+1.72504023e-01f,-1.08017921e-01f,-8.49424973e-02f,-9.37584564e-02f,
-1.15659989e-01f,+1.44175321e-01f,+8.91838502e-03f,+2.38583982e-01f,-1.42643005e-01f,
-1.81424201e-01f,-1.43542543e-01f,+1.92534178e-01f,+1.66857034e-01f,+8.63762274e-02f,
+2.27699041e-01f,+1.92042962e-01f,+5.90137802e-02f,+2.66244095e-02f,-9.53937620e-02f,
+3.05160098e-02f,-1.21431477e-01f,+8.73722136e-02f,+1.66605517e-01f,-8.17711353e-02f,
+1.94371328e-01f,+2.19594184e-02f,-8.36851895e-02f,+1.66128650e-01f,+1.57549724e-01f,
-1.14620931e-01f,+4.44205105e-02f,+2.49515548e-02f,+9.22662094e-02f,+1.25514064e-03f,
+5.80584817e-02f,-1.03207827e-01f,-1.56312764e-01f,+1.84510529e-01f,-1.03927672e-01f,
+5.71332984e-02f,-9.13488045e-02f,-9.78952721e-02f,+6.54837042e-02f,+1.31709296e-02f,
-1.07802622e-01f,+1.41945168e-01f,-6.87696412e-02f,+1.26016870e-01f,+1.59376636e-02f,
+1.28469512e-01f,-1.15540668e-01f,+9.00839828e-03f,-4.97775003e-02f,-8.04178566e-02f,
+2.82403380e-02f,+7.12645277e-02f,-8.29776525e-02f,+1.80385768e-01f,-1.73552841e-01f,
-1.21628888e-01f,-1.67881235e-01f,-1.67350918e-01f,+2.11608782e-02f,+6.45660236e-02f,
-3.11814770e-02f,+3.38001773e-02f,+2.38014590e-02f,-1.45625949e-01f,+8.38325843e-02f,
+1.09394997e-01f,+2.17054829e-01f,+1.60793141e-01f,-8.56863149e-03f,-1.91651210e-01f,
+6.77427948e-02f,+4.42882739e-02f,+2.00187743e-01f,-3.60613540e-02f,-3.36992033e-02f,
-1.23566367e-01f,+2.26838931e-01f,-2.78761685e-02f,-1.82598159e-02f,-2.89721112e-03f,
-8.77206773e-02f,+2.30369017e-01f,-4.68498282e-02f,+1.63636476e-01f,-7.28629306e-02f,
-3.63884382e-02f,+1.21706627e-01f,+1.23415463e-01f,+1.65455624e-01f,+1.73017696e-01f,
-1.07676571e-03f,+5.04895300e-02f,+1.25638321e-01f,-1.14627987e-01f,+1.33433893e-01f,
+1.37633413e-01f,+6.71958253e-02f,-3.52685787e-02f,+1.64903656e-01f,-2.88677849e-02f,
-1.59187436e-01f,-1.73980042e-01f,-3.06470040e-02f,-3.05705722e-02f,+1.46371767e-01f,
-5.07294163e-02f,+1.44504428e-01f,-1.08912185e-01f,+2.42892615e-02f,+9.47780311e-02f,
-1.81747928e-01f,+3.50225568e-02f,+9.82795209e-02f,-1.69201158e-02f,+1.08526982e-01f,
-1.46689460e-01f,-3.62690464e-02f,-7.68644512e-02f,-1.73295379e-01f,+6.53461516e-02f,
+2.26490200e-01f,-1.62493095e-01f,+2.81533580e-02f,+4.28762697e-02f,-4.35844809e-02f,
+3.50120179e-02f,+1.06360883e-01f,+1.93836223e-02f,-4.50696982e-02f,-4.97772023e-02f,
-8.96176025e-02f,+1.16624579e-01f,+1.71145171e-01f,+2.09521838e-02f,+1.00228399e-01f,
-8.62452574e-03f,+1.05613813e-01f,+1.23685852e-01f,-5.50185516e-02f,+8.14449266e-02f,
+2.35968679e-02f,-1.90632224e-01f,+4.26503383e-02f,-3.01317461e-02f,+5.93741015e-02f,
+1.68934971e-01f,-9.27636102e-02f,+2.04913273e-01f,+1.04467615e-01f,-7.67704099e-02f,
-1.27878293e-01f,-8.13441630e-03f,+1.10948987e-01f,+1.47952214e-01f,+7.85916671e-02f,
+1.48354113e-01f,-1.12572879e-01f,-2.00743526e-02f,-4.80207726e-02f,+1.02362387e-01f,
-3.92934158e-02f,+1.40107527e-01f,-1.61239415e-01f,+1.69223830e-01f,+1.33760408e-01f,
-1.67981267e-01f,+4.71665524e-02f,-1.17976785e-01f,-9.95667130e-02f,-1.41094923e-01f,
+9.95274261e-02f,-4.11514826e-02f,-5.01783751e-03f,+3.19333188e-02f,+1.04721993e-01f,
-1.51922464e-01f,-4.75056544e-02f,-8.20074305e-02f,+4.61764783e-02f,+1.71692893e-01f,
-1.23868398e-01f,-1.41896248e-01f,-3.13683003e-02f,-9.23186168e-02f,-8.14485177e-02f,
-1.79260463e-01f,-3.09725534e-02f,+3.51154618e-03f,+4.09569480e-02f,-2.66942438e-02f,
-1.55535132e-01f,-8.64219218e-02f,+1.21243253e-01f,+1.31304517e-01f,-1.54710054e-01f,
+7.52311945e-02f,-3.00657805e-02f,-1.16575789e-02f,-1.52553320e-01f,+1.84411854e-01f,
+8.89903679e-02f,+1.17045030e-01f,+5.57187609e-02f,+1.06574535e-01f,+1.42791290e-02f,
+1.28249690e-01f,-1.78819284e-01f,+1.34271353e-01f,+1.13952316e-01f,-8.32789466e-02f,
+8.26077163e-02f,+1.63488351e-02f,-7.24149570e-02f,-1.85897455e-01f,+1.19720109e-01f,
+1.77256241e-01f,+1.55810490e-01f,+7.04580247e-02f,+3.98624428e-02f,-1.26981130e-02f,
-2.81982385e-02f,-1.06505856e-01f,+1.00716315e-02f,+7.02309236e-02f,+1.42617732e-01f,
-2.24997140e-02f,+2.49334350e-02f,-1.40973389e-01f,+3.71930934e-02f,-4.45500426e-02f,
+1.52449474e-01f,+1.73577264e-01f,-7.73899406e-02f,-1.78525180e-01f,+2.56425776e-02f,
+1.12527674e-02f,-7.32163191e-02f,+7.58483708e-02f,-1.57029390e-01f,+1.10994026e-01f,
-4.21973206e-02f,+1.38709307e-01f,-1.38170287e-01f,-7.90441930e-02f,+2.07300857e-01f,
-1.61058605e-01f,+4.42122016e-03f,-3.35843042e-02f,+1.55625224e-01f,-1.73454106e-01f,
-1.73254833e-01f,+1.00953087e-01f,+1.36540353e-01f,+1.08782560e-01f,-5.48075251e-02f,
-1.01963118e-01f,+1.05230585e-01f,-1.19988337e-01f,-1.28211349e-01f,-1.01340316e-01f,
+2.25066647e-01f,-8.66096094e-02f,+9.24956948e-02f,+3.12821120e-02f,-1.67287543e-01f,
-7.44982287e-02f,+1.91553935e-01f,+3.70632522e-02f,-5.68816923e-02f,+1.73967347e-01f,
-1.71967179e-01f,+2.19420910e-01f,-1.29079610e-01f,+1.37939423e-01f,+1.98072940e-01f,
-1.59845248e-01f,+1.39982119e-01f,-7.88644776e-02f,+3.27906534e-02f,+2.10621534e-03f,
-1.75786596e-02f,-7.04627410e-02f,+1.25101015e-01f,-1.62563503e-01f,+6.80193380e-02f,
+1.52311400e-01f,+8.61698762e-02f,+7.54624233e-02f,+9.40837339e-02f,+2.19128311e-01f,
+6.17766455e-02f,-1.26341611e-01f,-3.30251902e-02f,+1.81265354e-01f,-1.64410800e-01f,
+7.05406256e-03f,-9.41998046e-03f,+2.20890597e-01f,+3.10502537e-02f,-1.72146276e-01f,
+6.19508848e-02f,+1.63639281e-02f,-1.68718979e-01f,+7.35895932e-02f,+1.61723793e-01f,
+1.72102302e-01f,-1.98404267e-02f,+1.98460117e-01f,+7.27554560e-02f,+1.83630213e-01f,
+1.71681434e-01f,-1.28628582e-01f,+8.24792236e-02f,-6.69677183e-02f,+1.23798005e-01f,
-6.27561882e-02f,+2.00846702e-01f,-1.40957519e-01f,+6.66959062e-02f,-1.00344867e-01f,
-1.25595555e-01f,+5.68373129e-03f,+1.08272605e-01f,-6.71017244e-02f,+3.70365307e-02f,
+5.25406599e-02f,-1.74001530e-02f,-3.39931622e-02f,-1.04722492e-01f,-3.38540226e-03f,
-8.36452246e-02f,-2.45033298e-02f,+9.74639729e-02f,-2.43517105e-02f,+1.89880818e-01f,
+7.06994757e-02f,+9.57668424e-02f,-1.25421491e-02f,-1.89337105e-01f,-3.77109163e-02f,
+1.88734084e-01f,-1.45497218e-01f,+6.40738234e-02f,-4.40056510e-02f,+1.10869668e-01f,
-1.88150220e-02f,+1.96443871e-01f,-2.06568584e-01f,+4.64334115e-02f,+1.95832159e-02f,
+7.59696662e-02f,+1.11711264e-01f,+1.13890581e-01f,-6.50121123e-02f,+1.31684422e-01f,
-7.48231038e-02f,-6.58581033e-02f,+1.45082802e-01f,+5.58888586e-03f,-4.90369126e-02f,
+2.34899651e-02f,+1.40544057e-01f,-1.11054610e-02f,-5.97381629e-02f,+1.31300047e-01f,
-5.88999279e-02f,+1.03705771e-01f,+1.30204558e-01f,+1.57655507e-01f,+5.25092110e-02f,
+1.58528998e-01f,-1.41249523e-01f,+2.24044308e-01f,+2.01902166e-01f,-1.26131147e-01f,
+5.43119647e-02f,-1.72576737e-02f,+1.27399191e-01f,-6.72581717e-02f,+8.88899267e-02f,
-1.75244838e-01f,+6.85592124e-04f,+6.21770322e-02f,+4.81041707e-02f,+8.74939114e-02f,
-1.25988960e-01f,-2.14601710e-01f,-7.26742530e-03f,+6.85462868e-03f,+1.29979327e-01f,
+1.48379922e-01f,+2.11373493e-01f,+1.41723260e-01f,-3.88520863e-03f,-2.47783270e-02f,
+9.96433571e-02f,+7.31842443e-02f,-1.30587310e-01f,+1.65523946e-01f,+7.29374662e-02f,
-9.61317420e-02f,-1.64020598e-01f,+1.11966766e-01f,+1.39551833e-01f,+1.30882144e-01f,
+1.67749316e-01f,+3.28108706e-02f,-1.45527631e-01f,-7.88491964e-02f,-6.20357543e-02f,
+5.99875748e-02f,-2.05047667e-01f,-4.52954955e-02f,-1.36517763e-01f,-1.78113163e-01f,
+1.62416175e-01f,+1.28797561e-01f,-5.64346686e-02f,+1.14391759e-01f,-1.16788276e-01f,
+1.53212443e-01f,+7.64220506e-02f,-6.58978820e-02f,+1.98048815e-01f,+1.52651016e-02f,
+1.12937391e-02f,-6.69760555e-02f,-1.32568285e-01f,-4.31708768e-02f,-8.45950246e-02f,
+1.14805952e-01f,+4.68397290e-02f,-1.07662246e-01f,-6.08205758e-02f,+1.26732796e-01f,
-1.73124894e-01f,-1.05919860e-01f,+1.60242943e-03f,+2.59024613e-02f,+6.09084852e-02f,
+1.40369594e-01f,+3.96443494e-02f,+1.38673976e-01f,+1.05037473e-01f,-9.38200131e-02f,
-1.83703601e-01f,+1.01962857e-01f,-1.01694435e-01f,+3.27264071e-02f,-2.26817355e-02f,
+1.01748019e-01f,-5.77474125e-02f,+5.28578945e-02f,-1.31323427e-01f,-9.02793556e-02f,
+6.62001222e-03f,-5.68237272e-04f,+1.04079835e-01f,+5.83390612e-03f,+9.17606428e-02f,
-1.10383518e-02f,-1.99407727e-01f,+1.26819387e-01f,+1.53125018e-01f,-4.13206629e-02f,
+1.37981191e-01f,+2.03923229e-02f,-5.57474680e-02f,-1.74791709e-01f,-1.05226211e-01f,
+1.25846118e-01f,-6.68919235e-02f,-9.69271734e-02f,+1.05569586e-01f,-3.55897434e-02f,
+1.26040563e-01f,-4.94632591e-03f,+8.41567293e-02f,+6.57255575e-02f,+1.69498056e-01f,
+9.20681581e-02f,+4.45809178e-02f,-3.11026778e-02f,+2.26131663e-01f,+9.02962014e-02f,
-1.46064069e-02f,-6.49607033e-02f,+1.73693579e-02f,-1.44942343e-01f,-6.29169419e-02f,
-7.84449875e-02f,-1.67023778e-01f,+1.46745160e-01f,+7.32067227e-02f,-2.05608103e-02f,
-1.14388056e-01f,+1.24166906e-01f,+7.55513534e-02f,+1.64418638e-01f,+7.75831565e-02f,
-1.06288888e-01f,-1.67824328e-01f,-1.51340321e-01f,+9.26625207e-02f,+1.91253006e-01f,
-6.90510944e-02f,+2.07974568e-01f,+5.56395315e-02f,-1.78058416e-01f,+2.06220865e-01f,
+5.02679721e-02f,+5.41882068e-02f,-1.31956786e-01f,+1.30813867e-01f,-1.79927021e-01f,
+1.62735134e-01f,+1.38226822e-01f,+1.73599471e-03f,-9.26465914e-02f,+8.26890543e-02f,
+1.40118718e-01f,+1.79793298e-01f,+7.60724694e-02f,-1.81368776e-02f,+1.21269133e-02f,
+1.36771113e-01f,+9.58308403e-04f,+1.68599680e-01f,+1.48496998e-03f,-1.41285390e-01f,
+8.49160701e-02f,+1.53832315e-02f,+1.52877092e-01f,+2.13023439e-01f,+2.00549021e-01f,
-4.10425328e-02f,-7.39607736e-02f,-7.63792219e-03f,-2.41424665e-02f,+1.57203853e-01f,
-7.22561330e-02f,+1.36718914e-01f,-9.79409292e-02f,-3.27961966e-02f,-8.12180340e-02f,
+1.70384020e-01f,+9.09433886e-03f,+1.18839532e-01f,-3.96401957e-02f,+2.34045908e-02f,
+8.41204077e-02f,-1.45196140e-01f,-1.67867303e-01f,+1.59509014e-02f,+8.45208764e-02f,
+1.54519916e-01f,-1.39173195e-01f,+1.30901337e-01f,-6.32467791e-02f,+1.51994392e-01f,
+5.13472110e-02f,+1.50800079e-01f,-1.71692744e-01f,+9.54106599e-02f,-8.00707936e-02f,
-9.94479209e-02f,+1.39023840e-01f,+7.08372146e-02f,-1.16495661e-01f,+1.05523281e-01f,
+1.88580930e-01f,+6.46311119e-02f,-2.20117755e-02f,+1.63364291e-01f,-1.45977736e-01f,
+1.17929116e-01f,+1.64799735e-01f,+1.19656645e-01f,-5.80888838e-02f,-1.45911261e-01f,
+6.25827685e-02f,-1.88466117e-01f,+9.92110744e-02f,-7.40400702e-02f,-3.52565944e-02f,
+5.01174740e-02f,+1.15859240e-01f,+1.10381141e-01f,+1.56423822e-01f,-7.10391402e-02f,
+1.87452599e-01f,-1.67000182e-02f,+5.12605123e-02f,-2.97737848e-02f,+1.29566446e-01f,
+1.71782076e-01f,-5.57539798e-03f,-1.30311355e-01f,-7.38435835e-02f,-1.40278950e-01f,
+2.67849881e-02f,+1.54130042e-01f,-5.45556210e-02f,+7.04234019e-02f,-1.41302506e-02f,
+1.74545556e-01f,-1.33408690e-02f,+9.30204764e-02f,+1.39496535e-01f,+6.76231235e-02f,
-1.57719061e-01f,+1.14905149e-01f,+2.03819394e-01f,-1.24913529e-01f,-7.72077292e-02f,
-1.61129206e-01f,-2.98836152e-03f,+7.89916664e-02f,-1.71972901e-01f,+1.15979873e-01f,
-6.10841699e-02f,-1.15096280e-02f,+6.65005073e-02f,+9.14043486e-02f,+8.45559463e-02f,
-2.55729947e-02f,+1.43878058e-01f,-1.52382210e-01f,-1.73329934e-01f,-2.29865406e-02f,
-8.59272853e-02f,+1.49186179e-01f,-1.74005240e-01f,+1.59679666e-01f,-8.70644897e-02f,
-1.19952522e-01f,+1.12363592e-01f,+1.41130090e-01f,+1.50261670e-01f,+1.03324071e-01f,
-4.52871583e-02f,-1.21211484e-01f,-1.19052501e-02f,-8.51209462e-03f,+8.16193745e-02f,
+6.33471832e-02f,+9.56210941e-02f,-8.97699818e-02f,-2.36608200e-02f,+1.35327810e-02f,
-5.92782255e-03f,-1.63503215e-01f,+1.17231347e-01f,+1.52439103e-01f,-1.55605257e-01f,
-1.19768716e-01f,+3.61221693e-02f,-8.61674920e-02f,-1.36263594e-01f,-3.19196098e-02f,
-1.66485071e-01f,-1.51150763e-01f,-4.77440804e-02f,+2.77405437e-02f,-2.39169896e-02f,
-1.63155869e-01f,+1.07069358e-01f,+1.10837109e-01f,+9.74121392e-02f,-6.39061164e-03f,
+1.10864550e-01f,-1.58226877e-01f,-7.94619620e-02f,+5.92189021e-02f,+1.57492399e-01f,
-1.36277735e-01f,-1.79482430e-01f,+9.34634879e-02f,+3.72359455e-02f,-1.01220105e-02f,
-1.29919261e-01f,+1.90829217e-01f,+1.66119546e-01f,+1.36613458e-01f,+1.65638015e-01f,
-8.97009745e-02f,-7.35424366e-03f,-9.17722937e-03f,+1.08349517e-01f,-1.44275144e-01f,
+6.71024015e-03f,+2.63075344e-02f,+1.87196165e-01f,-8.40742886e-02f,+8.91828388e-02f,
-6.93518370e-02f,-9.94473100e-02f,+1.43457577e-01f,-1.00220799e-01f,-1.47247523e-01f,
-1.41246989e-01f,+1.64468989e-01f,-3.60388234e-02f,-1.55208603e-01f,+1.69181153e-01f,
-1.96738765e-02f,+1.59893513e-01f,-8.29342678e-02f,-1.58365324e-01f,-4.08026986e-02f,
-9.30822864e-02f,+5.68078309e-02f,-1.01228163e-01f,-6.56723902e-02f,-1.11480072e-01f,
-1.37470230e-01f,-4.39843573e-02f,+1.29998013e-01f,-1.53613836e-01f,-8.03826973e-02f,
-9.84471217e-02f,+6.97932243e-02f,-1.11377589e-01f,-3.62860002e-02f,+2.55867913e-02f,
-9.85905305e-02f,-1.20551556e-01f,-6.37857988e-02f,+7.72221908e-02f,+1.44081548e-01f,
+1.03168543e-02f,-4.06418480e-02f,-5.44706956e-02f,+4.29231785e-02f,-1.03353687e-01f,
-7.55033642e-02f,+1.37327120e-01f,-1.15294382e-01f,-1.17507771e-01f,-3.30367386e-02f,
+1.19090490e-02f,+7.42711127e-02f,+1.69334874e-01f,+1.43703833e-01f,+9.11336243e-02f,
+2.15619922e-01f,+1.03941672e-01f,+9.99442339e-02f,+3.84578668e-02f,+8.74014944e-02f,
+6.14856556e-02f,+1.38691619e-01f,-6.90049026e-03f,+9.62281004e-02f,-5.62708192e-02f,
+1.10962860e-01f,+1.14462808e-01f,-1.52787447e-01f,+1.30266681e-01f,-3.84548726e-03f,
+1.38880879e-01f,+1.11420251e-01f,-1.84633285e-01f,-1.96946383e-01f,-4.42975648e-02f,
+1.76612079e-01f,-1.30351767e-01f,-1.76421463e-01f,+1.36089278e-02f,-1.45779662e-02f,
-1.14512980e-01f,+1.96568742e-01f,-1.20186269e-01f,-1.39833331e-01f,-1.64649874e-01f,
+6.89685419e-02f,-8.77829120e-02f,+1.71658352e-01f,+3.87060046e-02f,+8.93195719e-02f,
+7.38608092e-02f,+8.48805904e-02f,+4.38706763e-02f,-6.66863918e-02f,-1.49312556e-01f,
-9.29598361e-02f,-2.00519681e-01f,+1.85777783e-01f,+1.22473508e-01f,-1.42563730e-01f,
+3.45892943e-02f,-1.26649007e-01f,-2.82952492e-03f,+1.60639763e-01f,-8.88913944e-02f,
-7.35043362e-02f,-5.24079129e-02f,-6.47092685e-02f,+5.82228601e-02f,-1.37324512e-01f,
+2.12549880e-01f,+7.27790743e-02f,-1.43756390e-01f,+3.68556716e-02f,+2.71172952e-02f,
-1.85085744e-01f,+1.19080313e-03f,+1.36720240e-01f,+1.69614524e-01f,+3.71957943e-02f,
+1.56115949e-01f,+1.85160432e-02f,+8.88196379e-02f,-6.80697635e-02f,+2.80016512e-02f,
-3.93132046e-02f,-9.19723680e-05f,-1.10438854e-01f,-1.93080857e-01f,-1.64915234e-01f,
-6.72983527e-02f,+1.98751781e-02f,+1.76910400e-01f,-1.44387990e-01f,-6.08516438e-03f,
+1.65275186e-01f,-1.14539117e-01f,+2.95932125e-02f,+1.26581416e-02f,+4.89163101e-02f,
-1.51517555e-01f,-1.70829803e-01f,-1.00945733e-01f,+1.19917013e-01f,-1.32895619e-01f,
-5.68092912e-02f,-9.60518867e-02f,+2.10381690e-02f,+3.56334969e-02f,+7.14147389e-02f,
-3.45748402e-02f,-7.31982142e-02f,+1.08948439e-01f,-3.11698169e-02f,-1.28123105e-01f,
+3.08973026e-02f,-4.21357676e-02f,+5.63930087e-02f,-9.44896042e-02f,+4.58560698e-02f,
+1.11618176e-01f,+1.26189217e-02f,-2.90121678e-02f,+1.05245076e-02f,+8.00824910e-02f,
+1.07675254e-01f,+5.41205443e-02f,-5.00846794e-03f,-2.06448898e-01f,+1.04731128e-01f,
+1.51873380e-01f,-1.92038000e-01f,+8.93801004e-02f,+4.39181812e-02f,+1.93085283e-01f,
-2.22405624e-02f,+8.41755271e-02f,+1.11141451e-01f,-2.18135357e-01f,-6.02864362e-02f,
-1.53316572e-01f,+7.98599143e-03f,-7.75977075e-02f,-1.74754068e-01f,+1.15013439e-02f,
+1.09583579e-01f,+9.57023576e-02f,-6.71331584e-02f,+1.85471565e-01f,+5.68170287e-02f,
+1.89884044e-02f,-1.12786107e-01f,+2.09241025e-02f,-8.12432840e-02f,+1.43011995e-02f,
+8.11505094e-02f,-1.49316071e-02f,+1.72001258e-01f,+2.07857177e-01f,+2.02772170e-02f,
+1.15389720e-01f,+1.56217307e-01f,-6.33389726e-02f,+4.51499335e-02f,+1.03961505e-01f,
+1.13030180e-01f,-1.48211345e-01f,-1.50194680e-02f,+1.14231490e-01f,-7.78133497e-02f,
-5.40112294e-02f,+6.02567978e-02f,+1.26847506e-01f,+1.44832702e-02f,-1.66579351e-01f,
+1.34007884e-02f,+7.63932616e-02f,+5.28486352e-03f,+1.67690203e-01f,-1.84288159e-01f,
+4.57008108e-02f,-5.61731607e-02f,+2.93467231e-02f,-6.73141330e-03f,+3.86076234e-02f,
-1.09495640e-01f,-1.19799770e-01f,+8.86155143e-02f,+2.45605502e-02f,-1.36994928e-01f,
+8.56176019e-02f,-4.82842035e-04f,+7.64281526e-02f,+1.48739055e-01f,-2.04600349e-01f,
-7.90970773e-02f,+1.11006647e-01f,-1.39234886e-01f,-1.17732868e-01f,+1.17134720e-01f,
+7.24896938e-02f,+1.54843912e-01f,+1.82386130e-01f,+3.29030491e-03f,+2.41036206e-01f,
+6.89803362e-02f,-1.91942498e-01f,+1.36730045e-01f,+1.15787834e-01f,-1.31063551e-01f,
-5.47733568e-02f,-5.32500967e-02f,-4.27792259e-02f,-4.44707926e-03f,-9.58542340e-03f,
+8.35122392e-02f,-1.27036572e-01f,+1.45043721e-02f,-1.50261611e-01f,+1.49893612e-01f,
-1.40642926e-01f,+1.93759337e-01f,+8.71541724e-02f,-9.96474326e-02f,-8.80991369e-02f,
+1.18134946e-01f,-2.31851414e-02f,+2.08652511e-01f,-1.37835816e-01f,+4.20721695e-02f,
-2.24118996e-02f,+1.76180601e-01f,-4.67188162e-04f,+1.31675199e-01f,+6.44135475e-02f,
+7.16667995e-02f,-7.68511370e-02f,-6.07392192e-03f,-7.59294629e-02f,+1.11627489e-01f,
-1.12518765e-01f,+8.06733407e-03f,-5.86841777e-02f,-8.12676474e-02f,-1.00030504e-01f,
-1.04628965e-01f,-8.01084004e-03f,-1.42619768e-02f,-1.90992370e-01f,+5.15586734e-02f,
-1.16052240e-01f,-1.90714952e-02f,-1.07032090e-01f,+1.83253124e-01f,+4.21339422e-02f,
+1.64848845e-02f,+8.95283744e-02f,+3.27062942e-02f,-1.19190805e-01f,+7.43332878e-02f,
-1.34682935e-02f,+1.87288210e-01f,+5.86684607e-02f,-1.53606653e-01f,-8.33023190e-02f,
+1.42490998e-01f,+1.02430321e-02f,+5.10590971e-02f,+1.17436491e-01f,+1.98050648e-01f,
-1.09653868e-01f,-6.43207282e-02f,+9.84997675e-02f,+3.15642990e-02f,+3.28314453e-02f,
+1.75200820e-01f,+1.66227788e-01f,-1.08668618e-01f,+8.04133266e-02f,+5.08156791e-02f,
-1.67525485e-01f,-9.96940508e-02f,+2.23920256e-01f,-4.96767238e-02f,+4.01471741e-02f,
+1.43760713e-02f,-6.05054647e-02f,+1.35536462e-01f,+2.19218060e-01f,-7.12899938e-02f,
-9.15495008e-02f,+2.53868014e-01f,-1.98892429e-01f,+2.44102925e-01f,+6.47532046e-02f,
+2.53345639e-01f,-9.50697437e-02f,+2.49153942e-01f,-5.93884550e-02f,+1.86729565e-01f,
-4.38769162e-02f,-6.72139302e-02f,-2.11427495e-01f,+2.15214163e-01f,+3.78283337e-02f,
-6.30131736e-02f,-1.50585160e-01f,-1.92255065e-01f,-7.39204735e-02f,+9.48054343e-02f,
+1.98322721e-02f,-1.34984955e-01f,+4.65523936e-02f,-1.63488965e-02f,+1.65761694e-01f,
+2.80667059e-02f,-4.88152131e-02f,+7.15005770e-02f,+6.24061413e-02f,-1.52253821e-01f,
+1.76980525e-01f,-1.62743509e-01f,+3.48448381e-02f,+2.35641208e-02f,+3.16847004e-02f,
+9.96265113e-02f,-2.71381717e-02f,-1.12796456e-01f,+8.88936818e-02f,-8.68103430e-02f,
+3.49919945e-02f,-5.86400814e-02f,+1.44125924e-01f,+3.63876969e-02f,-3.78443897e-02f,
+9.81490221e-03f,-4.25454006e-02f,+7.75956661e-02f,+3.43233272e-02f,-1.02347679e-01f,
+8.69452357e-02f,+2.32024550e-01f,-1.85268372e-02f,+9.03864205e-02f,+1.24466375e-01f,
-1.45114601e-01f,+2.09088206e-01f,-1.32298768e-01f,+5.94874192e-03f,+9.26954821e-02f,
-1.48527786e-01f,-1.54914126e-01f,-9.49918479e-02f,-1.17381684e-01f,-1.89826056e-01f,
+1.52997702e-01f,-1.42760754e-01f,+7.84751028e-02f,+8.49930570e-02f,-1.24878332e-01f,
+1.60660580e-01f,+2.10657716e-01f,-1.01280048e-01f,+3.40321325e-02f,-7.18253031e-02f,
-2.60070786e-02f,+3.15835029e-02f,+2.11656496e-01f,-3.91584029e-03f,+3.17129269e-02f,
+8.28837380e-02f,-1.15258522e-01f,-1.78194195e-01f,-1.32764563e-01f,+1.55386105e-01f,
-7.15442300e-02f,+1.62017852e-01f,+1.95309848e-01f,+1.79264650e-01f,+4.69472148e-02f,
-1.86881814e-02f,-1.05536871e-01f,-5.41768186e-02f,-2.02846363e-01f,+1.11610591e-01f,
+1.04483239e-01f,+1.41236335e-01f,+3.24058048e-02f,-1.47338778e-01f,+4.64498140e-02f,
+5.57412878e-02f,+2.05058023e-01f,-1.75366536e-01f,+1.78941011e-01f,-9.21806134e-03f,
+1.95223000e-02f,+2.06618503e-01f,-1.47360265e-01f,+1.35437936e-01f,-7.79599026e-02f,
+1.83744013e-01f,-9.18660909e-02f,+1.61993857e-02f,+6.34047538e-02f,+1.35605618e-01f,
+1.38822630e-01f,+9.70252696e-03f,-5.01710409e-03f,+7.62582719e-02f,+1.47315606e-01f,
+7.07917213e-02f,+7.08589256e-02f,+8.78252387e-02f,+1.66679367e-01f,+2.40633488e-01f,
-3.97172272e-02f,+1.83514878e-01f,-1.43769935e-01f,+4.77641262e-02f,+1.88758165e-01f,
-3.70992497e-02f,-6.41976669e-02f,+7.94599205e-02f,+1.57918885e-01f,+5.52428663e-02f,
-1.41012520e-01f,-3.40864696e-02f,+1.60478979e-01f,-1.57066971e-01f,-2.51736939e-02f,
+1.55835643e-01f,+2.19435066e-01f,+1.81125015e-01f,+1.03386760e-01f,-1.37698516e-01f,
+1.43438866e-02f,-7.22968280e-02f,-4.07614969e-02f,-2.11799666e-01f,-5.74247129e-02f,
-1.27203152e-01f,-6.03917241e-02f,-1.16656132e-01f,+1.24338828e-01f,-1.08366333e-01f,
+6.93641976e-02f,+9.58798826e-02f,+1.80873632e-01f,+8.66435319e-02f,+3.54548432e-02f,
-4.03168760e-02f,+3.17787305e-02f,+3.44297849e-02f,-3.20753679e-02f,+1.59311488e-01f,
+5.68648148e-03f,-1.59223497e-01f,+1.01740725e-01f,+1.77306861e-01f,+1.22693971e-01f,
-4.23952974e-02f,-4.25197557e-02f,+1.50487661e-01f,-1.01139009e-01f,+7.48735741e-02f,
-5.55966748e-03f,-1.75624043e-01f,+5.53861931e-02f,-1.26909520e-02f,+9.98244435e-02f,
+5.72936907e-02f,-8.20210055e-02f,+1.15988068e-01f,+9.17501673e-02f,+2.00524077e-01f,
+1.96380630e-01f,+5.19970730e-02f,+1.34519652e-01f,+2.39779219e-01f,+4.67310697e-02f,
+1.56541452e-01f,+1.33969992e-01f,+3.35814245e-02f,+1.12987220e-01f,+6.58919588e-02f,
+1.50106952e-01f,+6.26019463e-02f,-1.08368933e-01f,+2.28935052e-02f,+2.11496130e-01f,
-1.25458473e-02f,+1.57578632e-01f,-1.07988141e-01f,+7.42021874e-02f,+2.86233537e-02f,
+2.21310884e-01f,+2.02386647e-01f,+9.98201668e-02f,+1.57993630e-01f,-9.39031690e-03f,
-8.38918090e-02f,-1.07720621e-01f,-2.13870481e-01f,+2.49974523e-02f,-1.65125489e-01f,
+1.44886196e-01f,+1.62587434e-01f,-1.19144127e-01f,+1.01113133e-01f,-6.22617714e-02f,
-1.18506312e-01f,+7.78822601e-02f,+1.01478033e-01f,-8.81302357e-03f,-1.42120183e-01f,
+1.91650987e-02f,-2.71923598e-02f,+1.80466086e-01f,+1.68690056e-01f,+1.13892891e-01f,
+1.91446275e-01f,+1.04051925e-01f,+1.90503374e-01f,-1.04136802e-02f,+4.55429517e-02f,
-6.70937896e-02f,+1.47201940e-01f,+8.37590471e-02f,+1.92345038e-01f,-1.34322748e-01f,
+2.35444494e-02f,+9.68499575e-03f,+8.15667212e-02f,-9.09229890e-02f,+4.30441834e-03f,
-3.40886004e-02f,+2.08883524e-01f,-2.58229431e-02f,+2.09457472e-01f,+2.11523529e-02f,
-4.73091714e-02f,-5.60197001e-03f,-9.29524004e-02f,+4.47413996e-02f,+1.52237609e-01f,
-7.14174807e-02f,+1.31392077e-01f,+2.00016305e-01f,+1.86308935e-01f,+3.75668816e-02f,
-3.51526514e-02f,+1.59474820e-01f,+1.67100057e-01f,+1.15075544e-01f,-3.34331691e-02f,
-8.93390775e-02f,+1.29393011e-01f,-1.80367427e-03f,-1.17542528e-01f,+1.39664859e-01f,
+1.40864849e-01f,-5.03870025e-02f,-1.28074944e-01f,-8.59422609e-02f,+4.59573716e-02f,
-3.98856029e-03f,+1.54083654e-01f,-1.65569901e-01f,+4.55566170e-03f,-1.17039092e-01f,
-2.34110635e-02f,-1.98533908e-01f,+1.64693236e-01f,+1.27355441e-01f,+1.73884615e-01f,
-5.58806136e-02f,-2.17454612e-01f,-1.21597894e-01f,+1.20146491e-01f,+6.42141327e-02f,
+1.19187087e-01f,+1.01634011e-01f,+1.57514662e-01f,-2.67412402e-02f,+2.22973406e-01f,
-1.67287081e-01f,+1.57214761e-01f,-1.57699361e-01f,-3.55016477e-02f,+2.26217151e-01f,
-1.80048347e-01f,-1.91944927e-01f,+1.34090453e-01f,+1.22602254e-01f,-3.33870053e-02f,
+4.47519720e-02f,+5.96862361e-02f,-1.93142682e-01f,+1.74147144e-01f,-7.41095990e-02f,
-7.61457626e-03f,+1.73289195e-01f,-1.21433228e-01f,-9.74246636e-02f,-6.85963258e-02f,
-6.06365055e-02f,-8.08981434e-02f,-9.11914110e-02f,+2.44739559e-02f,+1.28813433e-02f,
+5.98899312e-02f,-9.40864086e-02f,-4.31617685e-02f,+1.65504202e-01f,+1.03313342e-01f,
-1.30358443e-01f,-8.47013593e-02f,-1.18282616e-01f,-1.14110522e-01f,-1.57723665e-01f,
-1.48518935e-01f,-5.60901351e-02f,-1.64615095e-01f,+6.30359948e-02f,-7.14644045e-02f,
+1.51364192e-01f,+6.44879742e-03f,+1.37547240e-01f,+1.94663391e-01f,-5.88872703e-04f,
+3.01300287e-02f,-1.66941777e-01f,+1.45958051e-01f,-1.49057463e-01f,-4.58810776e-02f,
-1.18857071e-01f,+1.95614219e-01f,-8.80459771e-02f,+2.27698609e-01f,+2.01865613e-01f,
+1.01801805e-01f,+4.67978716e-02f,-7.04616457e-02f,-5.00455946e-02f,+1.71932742e-01f,
+1.44113466e-01f,+9.31117833e-02f,+1.00272551e-01f,-1.17754973e-02f,+5.45250587e-02f,
-4.15198915e-02f,-1.22572258e-01f,-9.72139239e-02f,-3.67752761e-02f,-8.39150548e-02f,
-1.04200810e-01f,-9.77963507e-02f,+4.70239408e-02f,-2.06490323e-01f,-1.79016411e-01f,
+1.61008805e-01f,+1.09571494e-01f,-4.84170504e-02f,-1.36134967e-01f,-7.64719173e-02f,
-5.29553145e-02f,-1.45176485e-01f,-4.16482165e-02f,-1.67618822e-02f,+2.18570888e-01f,
-9.02742967e-02f,+1.72122613e-01f,+7.55025968e-02f,+9.74953771e-02f,+2.29976863e-01f,
+1.62061274e-01f,-1.04005583e-01f,+2.14840844e-01f,-1.70006752e-02f,+2.22188737e-02f,
-1.36557922e-01f,+5.96751040e-03f,+5.46608642e-02f,-1.46153301e-01f,-3.45446989e-02f,
+1.94294527e-01f,+2.04149276e-01f,+6.75959438e-02f,+1.53032422e-01f,-2.89882179e-02f,
-1.31448567e-01f,-1.38474792e-01f,+1.27120465e-01f,-3.01712994e-02f,+1.93137228e-02f,
-8.14706758e-02f,-2.32790224e-02f,+2.07738742e-01f,-1.72339782e-01f,-5.43876700e-02f,
-9.62072760e-02f,+1.47298545e-01f,-1.11765660e-01f,-1.29460305e-01f,+1.23825185e-01f,
+2.23337822e-02f,+1.48138568e-01f,+1.07718259e-02f,+4.95758802e-02f,+3.06883231e-02f,
-1.50221512e-01f,-1.84999791e-03f,-1.91936374e-01f,+2.29824528e-01f,-8.26940164e-02f,
+3.96295264e-02f,+1.05344668e-01f,+1.72048397e-02f,+1.39764935e-01f,-1.18260942e-01f,
-1.07274592e-01f,+1.65245935e-01f,+3.93335745e-02f,+9.77840461e-03f,+1.06415495e-01f,
+5.51739074e-02f,+5.10648042e-02f,-5.96856251e-02f,+1.31087884e-01f,+2.04236135e-02f,
-1.97887719e-02f,-1.98743984e-01f,-1.33722603e-01f,-2.18252894e-02f,+7.28607029e-02f,
-3.82901393e-02f,-1.04221590e-01f,+9.59301740e-02f,+7.96650164e-03f,-1.18116230e-01f,
-1.20836034e-01f,-5.10196015e-03f,+1.17882930e-01f,+4.38284129e-02f,-9.69405025e-02f,
+6.48326203e-02f,+1.20688677e-01f,+1.40526667e-01f,+1.28627811e-02f,+1.44354329e-01f,
-2.13262245e-01f,+1.00913867e-01f,-1.64970711e-01f,-1.27764586e-02f,+1.74402133e-01f,
-2.70178658e-04f,+1.91449607e-03f,-5.46450205e-02f,+5.71402302e-03f,-1.40571937e-01f,
+3.78511436e-02f,-8.57617632e-02f,+4.77235764e-03f,-1.51162013e-01f,-6.00925162e-02f,
-8.33330378e-02f,+1.23044729e-01f,-1.03705518e-01f,-4.00265716e-02f,-4.39777598e-02f,
-2.88863089e-02f,-1.30110204e-01f,-9.80604813e-02f,-5.89884780e-02f,-4.97181080e-02f,
+1.28991634e-01f,+1.19643345e-01f,+2.14804128e-01f,+5.81283495e-02f,-1.14234060e-01f,
+1.15524968e-02f,+1.60809327e-02f,+1.15728810e-01f,-2.57081240e-02f,+2.10065946e-01f,
+1.03018433e-02f,+1.12007201e-01f,+1.93977192e-01f,-9.85293090e-02f,-8.16315636e-02f,
+1.33761808e-01f,-8.55138525e-03f,+6.86304793e-02f,+5.48436902e-02f,+2.34309614e-01f,
+4.84201796e-02f,+1.19493373e-01f,+7.38073066e-02f,+1.32754957e-02f,+7.58851245e-02f,
+3.60270962e-02f,-4.83373962e-02f,-1.13236606e-01f,+1.61146834e-01f,+6.83480054e-02f,
-1.10118359e-01f,-1.37685403e-01f,-1.33227289e-01f,+5.33300787e-02f,-1.18019685e-01f,
-4.13851365e-02f,+1.98104270e-02f,+1.28296614e-01f,-2.78055482e-02f,-1.49126008e-01f,
+4.27244715e-02f,-1.79513078e-02f,+6.33070618e-02f,+1.10544607e-01f,-1.87106878e-01f,
-1.50677515e-02f,+7.65148178e-02f,-6.69196844e-02f,+1.53041139e-01f,+6.88080117e-02f,
+1.24438358e-02f,+2.95749940e-02f,-5.93325682e-02f,+1.96132407e-01f,+1.00923128e-01f,
+1.59964904e-01f,+1.05653390e-01f,+5.32086790e-02f,+1.54954374e-01f,-7.48477653e-02f,
+1.76441297e-01f,+1.70758218e-02f,-6.04539327e-02f,-8.36090595e-02f,-1.23565190e-01f,
-1.85322270e-01f,+1.31149247e-01f,+1.87290236e-01f,+1.35289744e-01f,-1.37177899e-01f,
-5.00703454e-02f,-5.61670326e-02f,+2.00477093e-01f,+5.42593263e-02f,-6.77313879e-02f,
+8.09813365e-02f,-4.62892950e-02f,+1.25619039e-01f,-1.44661730e-02f,+1.34027839e-01f,
-1.41173631e-01f,-1.55449018e-01f,-2.24160235e-02f,+9.09030437e-02f,+1.59703106e-01f,
+6.45181686e-02f,+1.31217927e-01f,+6.59387410e-02f,-2.00869635e-01f,+5.13580181e-02f,
-1.36372060e-01f,+1.58030555e-01f,-1.00187257e-01f,-7.04966262e-02f,+1.57877609e-01f,
+2.66266242e-02f,-1.75566882e-01f,+8.56819078e-02f,+1.83874533e-01f,-3.38830575e-02f,
+7.94340670e-02f,+1.15678124e-01f,-1.11890532e-01f,+6.98225200e-02f,+1.52596578e-01f,
+1.69978499e-01f,+9.26576704e-02f,+4.63919947e-03f,+1.14614345e-01f,-3.47653143e-02f,
-1.38425961e-01f,+2.11025208e-01f,+1.52369976e-01f,+2.17718676e-01f,-6.51111528e-02f,
+4.53016683e-02f,+1.81367174e-01f,+1.28115579e-01f,-1.28692180e-01f,-1.49250380e-03f,
+3.22758555e-02f,-1.09125830e-01f,+1.56101510e-01f,+6.74879029e-02f,+6.53616115e-02f,
-1.38391748e-01f,-6.89527914e-02f,-9.60785896e-02f,-9.41898376e-02f,+9.41880792e-02f,
-7.16699287e-02f,+1.64058328e-01f,+1.09914958e-03f,-6.60391711e-03f,+5.90828955e-02f,
-1.02236696e-01f,+7.73674026e-02f,+6.97379559e-02f,+5.52740283e-02f,-1.09521113e-01f,
+1.49805769e-01f,-9.16210935e-02f,+9.40573961e-02f,+2.45623793e-02f,+9.53729898e-02f,
-8.86952356e-02f,+1.23520575e-01f,+1.61725074e-01f,-6.76121786e-02f,+1.25660151e-01f,
-1.15131706e-01f,+1.79919511e-01f,-1.09199762e-01f,+6.69843182e-02f,+1.08856358e-01f,
-2.22921044e-01f,-1.04763946e-02f,-1.39947250e-01f,+1.67278364e-01f,-1.12366602e-01f,
+1.48121594e-02f,+1.24045603e-01f,-9.86912921e-02f,+1.83325894e-02f,+7.49912187e-02f,
-1.29010066e-01f,+2.31508225e-01f,+1.47702962e-01f,+4.32452559e-02f,-1.88293643e-02f,
+1.30163953e-01f,+6.11371100e-02f,-1.70689806e-01f,+4.12716642e-02f,-5.43508958e-03f,
-1.66928679e-01f,-7.69207031e-02f,+1.35188460e-01f,+1.04208514e-01f,+1.43681228e-01f,
+4.91244867e-02f,-8.46942738e-02f,-1.05747301e-02f,-1.58281654e-01f,-1.38363138e-01f,
+1.03799313e-01f,-1.61517009e-01f,-1.11585028e-01f,+1.87638938e-01f,+2.14456338e-02f,
+7.29540288e-02f,-9.97280329e-02f,-5.48740327e-02f,+3.77302691e-02f,+9.79747921e-02f,
+2.98725925e-02f,-1.58945575e-01f,-8.92311335e-02f,+7.87151605e-02f,+1.78822473e-01f,
-2.22938955e-02f,-9.56826657e-02f,-5.65930828e-02f,-1.34739503e-01f,+1.25639394e-01f,
-3.41801047e-02f,-5.05961701e-02f,-1.96480216e-03f,-1.05654120e-01f,-1.77346647e-01f,
+5.37091754e-02f,-1.46272868e-01f,-1.09600209e-01f,+1.12642065e-01f,+7.63116926e-02f,
+5.58980368e-02f,+1.60886586e-01f,-1.50458887e-01f,+1.27955928e-01f,-1.40188798e-01f,
-1.09885372e-02f,-1.61436163e-02f,-1.29522666e-01f,+1.59002095e-01f,+3.93445827e-02f,
+1.79105863e-01f,-1.02275260e-01f,-8.49279091e-02f,+8.66730660e-02f,+1.55666709e-01f,
-1.49739757e-01f,-6.90066442e-02f,+1.26403812e-02f,-1.23489283e-01f,-8.32420439e-02f,
+2.01876760e-01f,-4.74407971e-02f,+3.11518218e-02f,+6.59984574e-02f,-8.47554058e-02f,
-3.62534076e-02f,+1.02216385e-01f,-6.22681156e-02f,-1.10347825e-03f,-4.12754379e-02f,
-5.54375425e-02f,+1.14204571e-01f,+2.46867597e-01f,+1.05004765e-01f,+1.03545845e-01f,
-1.12235798e-02f,-2.80252774e-03f,+6.65642554e-04f,+2.04652667e-01f,-7.26612434e-02f,
-1.11900307e-01f,+1.72679871e-02f,-1.98979080e-01f,+1.66767627e-01f,+1.28262356e-01f,
-1.33401334e-01f,+1.59168109e-01f,+8.28975737e-02f,-2.94855405e-02f,+1.24150537e-01f,
-1.34649694e-01f,-2.06012368e-01f,-6.12237193e-02f,-8.90863221e-03f,-2.28906311e-02f,
-6.76234737e-02f,-7.35013261e-02f,-1.58170283e-01f,+5.59146740e-02f,-1.36010364e-01f,
-5.50814159e-02f,+1.24161944e-01f,+7.28154555e-02f,-1.46710515e-01f,+1.90456465e-01f,
+1.06046185e-01f,-9.50759649e-02f,-8.33106115e-02f,-7.79294148e-02f,+6.82285577e-02f,
-1.60568967e-01f,+1.44304847e-02f,-1.31871700e-01f,-1.22482449e-01f,+1.21258520e-01f,
+1.93449244e-01f,+7.39304051e-02f,+9.08649787e-02f,+1.02220774e-01f,+7.32736662e-02f,
+1.30500838e-01f,-1.67717282e-02f,-4.19993140e-02f,-1.70175791e-01f,+1.27977487e-02f,
+1.75416395e-01f,+1.92837968e-01f,+8.90130550e-02f,+5.44797536e-03f,-8.16174969e-02f,
-6.07240386e-02f,+9.50422734e-02f,+1.25301465e-01f,-8.03349242e-02f,+2.04392657e-01f,
-1.25142977e-01f,-6.37915283e-02f,-1.42135859e-01f,+7.96563029e-02f,+1.65399611e-02f,
-1.24580711e-01f,+7.98995122e-02f,-7.77211189e-02f,+1.69774458e-01f,+8.31948146e-02f,
+6.11947738e-02f,+1.33682951e-01f,-1.39833137e-01f,-4.57535051e-02f,+6.07617423e-02f,
+1.74402013e-01f,+1.48853242e-01f,+8.43804628e-02f,+1.71309903e-01f,-1.34536684e-01f,
-5.11374250e-02f,-8.10152590e-02f,-2.02748850e-02f,-2.10796297e-01f,+8.70133266e-02f,
-1.38707653e-01f,-1.79471195e-01f,+6.10617595e-03f,-3.53170708e-02f,+1.47827879e-01f,
+1.50206387e-01f,+3.61657366e-02f,-4.28156182e-02f,+1.00632928e-01f,-1.56596452e-01f,
-9.33140591e-02f,-5.09099029e-02f,-4.93855635e-03f,-7.02036396e-02f,-1.56403735e-01f,
-5.18281423e-02f,-4.24708687e-02f,-1.31495386e-01f,+1.59654319e-01f,+2.70823278e-02f,
-6.24127686e-02f,+5.14575168e-02f,+1.98544279e-01f,+2.11594999e-01f,+1.98256224e-01f,
-1.43840000e-01f,+1.77287668e-01f,-3.82714197e-02f,+1.45200461e-01f,-1.64719909e-01f,
+1.02674656e-01f,+3.34367715e-02f,-8.50909203e-02f,+2.37177219e-02f,-1.46474704e-01f,
+1.04857283e-02f,+2.24761404e-02f,+6.35077953e-02f,+1.84597641e-01f,+4.85586636e-02f,
+1.38874110e-02f,-1.55412272e-01f,+1.32420152e-01f,+1.25798374e-01f,+4.97409366e-02f,
-1.31367207e-01f,-1.29308432e-01f,+5.46230339e-02f,-3.84175172e-03f,+6.27297210e-03f,
-4.95111160e-02f,+4.81191725e-02f,-1.95696995e-01f,-1.61938682e-01f,-8.83761346e-02f,
-8.61290097e-02f,-2.14424163e-01f,-9.42103863e-02f,+1.80707499e-01f,+1.12511359e-01f,
-1.45372435e-01f,-1.95460543e-01f,+2.02545404e-01f,-4.69237566e-02f,-1.08662888e-01f,
+1.09182298e-01f,-8.66807923e-02f,-1.43364012e-01f,-5.22111394e-02f,+8.30109268e-02f,
-8.83574411e-02f,+1.63714290e-01f,+1.21828936e-01f,+4.09401469e-02f,+1.73593402e-01f,
-3.21494788e-02f,+2.06127595e-02f,+2.42529009e-02f,-1.90983891e-01f,+1.26262195e-04f,
-4.99978252e-02f,-4.82618995e-02f,-1.79008991e-01f,-7.81440437e-02f,-1.62060522e-02f,
-2.04602256e-02f,+1.12127207e-01f,+8.85957778e-02f,-1.47364661e-01f,+1.85383201e-01f,
+9.53188688e-02f,+1.68749634e-02f,+1.95689186e-01f,-2.87426002e-02f,+6.70850426e-02f,
+1.17529273e-01f,+1.84554189e-01f,+7.44323581e-02f,+4.73049134e-02f,+4.16317247e-02f,
-1.54855862e-01f,-4.46527973e-02f,-1.20880276e-01f,+2.05774397e-01f,+1.27149388e-01f,
-3.44928652e-02f,+4.27977443e-02f,-1.93169713e-01f,-8.32506046e-02f,-1.39645999e-02f,
+8.92463326e-02f,+6.94933534e-02f,+5.06380871e-02f,-2.75552683e-02f,+2.21763179e-01f,
-3.92537564e-02f,-1.52808666e-01f,-1.79146543e-01f,+1.23816863e-01f,+2.17806883e-02f,
-1.17060870e-01f,-1.27355188e-01f,-1.13586135e-01f,-1.45369470e-02f,+2.26177424e-01f,
+1.26544252e-01f,+2.03509256e-01f,-1.34375662e-01f,+1.53968811e-01f,-8.92244279e-02f,
-7.05118105e-03f,-1.21053969e-02f,+3.80069874e-02f,-1.06297225e-01f,-2.06615373e-01f,
+1.62533253e-01f,-1.84686646e-01f,+1.28379673e-01f,-5.61586954e-02f,+8.27027410e-02f,
-2.59123500e-02f,+1.90875009e-02f,+1.53475314e-01f,-5.24171479e-02f,+6.33631945e-02f,
+1.01281598e-01f,-2.61423886e-02f,+1.07645921e-01f,+3.71306613e-02f,+1.34652406e-01f,
+5.50733767e-02f,+1.27105325e-01f,+1.86470568e-01f,-1.24910824e-01f,+1.89804938e-02f,
+2.19011288e-02f,+2.13821739e-01f,+7.81430528e-02f,+5.80456816e-02f,-1.23443618e-01f,
+2.00707242e-02f,+1.55399948e-01f,+3.24079841e-02f,+7.83606619e-02f,+2.05858648e-02f,
-1.02804005e-01f,-9.77592915e-03f,+1.49343237e-01f,-1.51830733e-01f,-1.26671657e-01f,
+2.13384647e-02f,-1.52063832e-01f,+6.62516207e-02f,+5.32011427e-02f,+1.54065952e-01f,
-1.13765053e-01f,+1.03904214e-02f,-1.13737524e-01f,+1.31600037e-01f,+9.19684917e-02f,
+1.51260704e-01f,+9.30135325e-02f,+3.39839794e-02f,+1.12009205e-01f,-6.59508482e-02f,
-5.70446178e-02f,-6.13027140e-02f,-3.80271748e-02f,+1.68719694e-01f,-1.24059372e-01f,
+2.57367105e-03f,+1.89856395e-01f,+8.93145427e-02f,+4.36164811e-02f,+7.77980220e-03f,
